in 0.052956 0.065460 0.066195 0.047072 0.052221 -0.082009 -0.061415 -0.116210 0.015629 0.099293 -0.085686 -0.028133 0.052221 0.058840 -0.077596 -0.073550 0.033282 0.077228 -0.045785 -0.027214 -0.034201 0.035672 -0.090835 -0.048175 0.001701 0.027949 -0.002195 0.088628 0.046521 0.048175 0.061047 -0.051853 -0.016089 0.041556 -0.064357 0.051853 -0.096351 -0.025007 0.074286 0.132391 0.083480 -0.026110 -0.035488 -0.006390 0.027030 0.077596 0.020318 -0.021605 -0.003861 0.080170 0.045050 0.070976 0.025375 -0.020410 -0.070976 0.000776 -0.036407 0.025926 0.061047 -0.085318 -0.066931 0.027030 -0.109590 -0.183876 -0.046337 0.039901 0.042843 0.135333 0.045969 0.065460 0.093409 -0.030340 0.017009 0.133862 -0.022341 -0.022341 0.088260 0.023444 -0.072447 0.050014 0.003540 -0.060311 0.047440 -0.015538 -0.041188 -0.102235 -0.047808 0.062886 -0.048175 0.016181 0.058105 -0.027949 -0.025375 -0.138275 -0.054795 0.011952 0.070241 -0.046337 -0.010711 -0.002597 0.008366 -0.119152 -0.012871 0.004666 -0.006574 -0.060679 -0.011492 -0.066195 0.002620 -0.012136 -0.009286 0.073550 -0.105177 -0.064724 -0.020226 0.040637 0.100028 0.084951 0.091202 0.064357 -0.005355 0.033649 -0.109590 -0.002413 -0.088628 -0.049279 0.053692 -0.070976 -0.022801 0.090467 0.060311 -0.071344 -0.122094 -0.058473 0.015997 -0.061415 0.002965 -0.118416 -0.073918 0.029972 0.029604 -0.006849 0.077596 0.051117 -0.032178 0.047808 -0.036959 0.015721 -0.125771 0.070241 0.070608 0.005172 0.040453 0.039533 -0.018388 -0.024455 -0.046337 -0.004183 0.072447 0.028501 0.009194 -0.033098 -0.005631 0.079434 0.015354 0.109590 0.061782 0.004344 0.003448 -0.069873 -0.104441 -0.043211 -0.038798 -0.098557 -0.105177 -0.015446 -0.020410 0.024639 0.079067 -0.001758 -0.017009 0.000379 -0.083480 0.063989 -0.097822 -0.013147 -0.000270 0.081273 0.066931 0.033649 0.018939 0.017928 0.061047 0.017836 -0.082744 0.004045 -0.013331 -0.025559 -0.024823 -0.123565 0.072079 -0.013791 0.003999 -0.025926 -0.033282 -0.050014 -0.013515 -0.022341 -0.005723 -0.038614 -0.040820 0.067299 -0.054059 0.011492 -0.062150 -0.023904 0.026846 -0.015997 -0.044682 -0.009837 0.035304 0.017376 0.015813 -0.059208 -0.006068 0.014710 -0.004183 0.031259 0.020962 0.010251 0.026110 -0.137539 0.090467 0.055898 -0.030891 -0.007493 0.032362 -0.005493 0.092673 0.043395 -0.040269 -0.024272 -0.006849 -0.035120 0.033098 -0.038246 0.051853 0.002252 -0.003149 -0.033282 0.055530 -0.009608 0.050750 0.004735 0.056634 -0.028501 0.003678 0.033649 -0.050750 0.007309 0.003563 0.015446 0.053692 0.128713 0.130920 0.041924 0.068770 -0.028133 0.037511 -0.029604 0.033282 0.047072 0.036591 -0.040085 0.036775 -0.098557 -0.021789 -0.027214 -0.045785 -0.043211 0.092673 -0.062150 -0.008964 0.094144 0.001023 0.048175 -0.080170 -0.108119 -0.031811 0.018112 -0.127242 -0.066931 -0.060679 0.048911 0.046153 -0.035672 -0.044314 -0.035856 0.010895 -0.047072
is 0.003746 -0.038920 0.091332 0.012000 -0.070575 0.105343 0.059936 -0.057342 0.038141 0.011092 -0.065385 -0.031395 0.053709 0.005708 0.076283 0.138035 -0.019330 0.098597 -0.041774 -0.012065 -0.064088 0.094445 0.026336 0.009146 0.042293 -0.024260 -0.100154 0.100672 -0.012325 0.033471 0.051893 -0.010119 -0.042033 0.080953 0.092370 0.053969 -0.086661 0.060974 0.053450 -0.049298 0.058120 0.031266 -0.011481 0.033730 0.022314 -0.004703 0.017125 0.056563 0.034249 -0.063050 0.016217 0.035547 0.064866 -0.044109 0.091332 0.041774 0.050596 -0.004135 0.012325 0.012454 -0.008952 0.082510 -0.058380 -0.093926 -0.061753 0.012454 -0.005643 0.028022 -0.071093 0.042293 0.039179 0.023352 0.061234 -0.010962 0.039698 -0.006130 0.042812 0.022184 0.042552 0.186815 0.051374 -0.113127 0.087699 -0.041514 0.037104 -0.000742 -0.048520 0.069018 0.133884 -0.008562 0.049558 -0.077840 -0.000803 -0.080434 -0.014271 -0.083548 0.014011 0.045666 0.038141 0.040995 -0.020757 0.028930 -0.067980 0.048520 -0.098078 -0.019979 -0.014854 -0.047742 -0.062012 -0.052412 0.025557 -0.086142 -0.057861 0.045147 -0.024260 0.084067 -0.020238 -0.043590 0.107937 0.045925 0.036844 0.017125 -0.085105 0.050336 -0.013103 0.028801 0.014854 0.023871 0.090294 0.038660 -0.019330 -0.005449 -0.009081 -0.057082 -0.000373 -0.039179 0.134922 0.030098 0.018681 -0.004573 0.098597 0.011416 0.140111 -0.012649 -0.052671 -0.021925 -0.036844 -0.060455 0.026595 -0.031266 0.024519 0.046444 0.056044 0.056563 0.014854 0.050336 0.061753 -0.091851 -0.018552 -0.110532 0.031655 0.055266 -0.000953 0.031136 -0.015827 -0.019979 0.025817 -0.033990 0.042293 0.036844 -0.055785 -0.076802 0.023092 -0.036585 -0.018941 -0.006227 0.007265 -0.035028 0.063309 0.016606 -0.024649 -0.001046 0.003908 -0.030098 0.014790 0.043850 -0.007168 0.038141 0.076802 0.067980 0.022444 0.075245 -0.009600 0.011481 -0.048779 0.071093 -0.103786 -0.026725 -0.020109 -0.051115 0.054747 -0.056823 -0.078358 0.052931 -0.122468 0.120911 -0.039958 0.034509 0.048779 0.024909 0.033471 0.037104 0.024519 0.051634 -0.107419 0.105862 0.099116 -0.063569 -0.075764 0.079915 -0.017903 -0.077321 -0.000367 -0.038920 0.071093 0.018941 -0.012195 0.014725 -0.042033 0.110013 -0.044369 -0.026336 0.016736 0.078877 0.029579 -0.023871 -0.042293 0.002530 -0.011027 0.031914 0.002530 0.005935 0.091851 -0.071612 0.016346 -0.042293 0.048001 0.032433 0.040995 -0.026725 -0.049039 -0.142187 0.057342 0.045666 0.033471 0.057342 -0.014206 0.054228 -0.064088 0.028152 0.050336 -0.087699 0.023482 0.038401 0.021925 0.226254 -0.054747 -0.085105 -0.048001 -0.033990 -0.025557 0.076802 0.034768 0.026206 0.028801 0.072131 -0.010249 -0.114684 -0.039439 -0.077840 0.006097 -0.087699 -0.055785 0.001703 0.071612 -0.002108 -0.055007 -0.074207 0.055526 -0.006681 -0.124024 -0.019330 -0.049817 0.097040 0.014400 0.067980 -0.013168 0.005968 0.087180 0.056823
The -0.082835 0.133846 0.051245 -0.075815 -0.040481 0.028314 0.019539 0.001221 0.124486 0.086579 0.046799 -0.038843 -0.005031 0.047033 0.000289 0.033930 -0.007488 -0.045629 -0.038843 -0.013747 -0.015912 0.079091 0.019071 -0.017784 0.019656 -0.060839 -0.061775 0.059201 0.023868 0.006025 0.027729 -0.003978 -0.013572 -0.015912 0.077219 0.036035 -0.124486 0.042821 0.065051 0.002208 -0.021177 0.011115 -0.050075 -0.024687 0.040013 -0.009828 -0.010413 -0.013104 0.076751 0.091259 -0.015561 0.032526 0.049373 -0.121678 0.003042 0.098279 0.010120 -0.103895 -0.011700 0.081899 -0.104830 0.047969 -0.074411 -0.060371 -0.018369 -0.025974 0.092195 0.104362 0.058031 -0.012694 0.025389 -0.009652 0.025623 0.036737 0.021879 0.009477 0.059669 0.048905 0.073007 0.120742 0.020592 -0.088919 -0.036035 0.109042 -0.063179 -0.131974 -0.096407 0.060371 -0.089387 -0.066923 -0.060371 0.038375 -0.016263 -0.113722 -0.003671 0.135718 -0.008248 0.013045 -0.112318 0.061775 0.080495 -0.004885 0.031356 -0.063647 0.037205 -0.055925 0.007020 -0.025389 -0.058031 -0.047501 0.026793 -0.020124 0.051479 0.043757 0.070667 0.048905 -0.000669 0.096407 0.040481 0.036269 -0.116530 -0.090791 -0.037907 -0.031824 0.061307 0.072071 -0.079559 -0.045629 0.046097 -0.024102 -0.011992 -0.023634 -0.020943 -0.011232 0.031824 -0.064115 -0.119806 -0.116062 -0.054287 0.012636 0.066455 -0.033930 -0.106702 -0.054053 -0.008658 -0.091259 0.035567 -0.079559 0.003013 0.093599 -0.002091 -0.080027 0.070667 -0.023400 0.089855 -0.112318 0.069263 0.003685 0.019656 -0.032292 -0.008014 -0.024102 0.040715 0.017550 0.064583 0.038609 -0.021411 0.079559 -0.106702 0.004475 -0.057329 -0.031122 0.016029 -0.046799 0.007020 0.058265 0.059201 -0.064583 -0.025389 -0.132910 -0.018135 -0.037907 -0.032994 0.027378 0.014917 0.033930 0.038141 0.003144 0.068327 -0.040481 0.014976 -0.017082 0.011056 -0.007956 -0.082835 -0.077219 -0.051479 0.026676 -0.044225 -0.122614 0.018837 -0.097811 0.040715 0.022113 0.005791 -0.006025 0.030654 0.123550 0.088451 -0.026793 0.011232 0.050309 0.057563 0.004358 -0.002720 0.053351 0.072539 0.011817 -0.018369 0.055457 0.082367 -0.019773 0.049373 0.021411 -0.006084 -0.039311 -0.016731 0.003773 0.037907 -0.000241 0.010764 -0.077219 0.055691 0.120742 -0.022347 -0.038375 -0.047267 0.022815 -0.029016 0.056861 -0.016263 -0.032058 -0.000373 -0.023400 -0.005704 -0.039545 0.104362 -0.000867 0.071135 -0.009828 0.126358 0.081899 -0.022230 0.061307 0.023049 -0.018018 0.080027 -0.091727 0.018720 0.036971 -0.007605 0.047501 -0.075815 -0.006610 0.008892 0.074411 -0.087047 0.016146 -0.000386 0.032058 -0.008833 0.067859 0.030888 -0.003510 0.038141 -0.013396 0.059903 -0.113722 0.017433 -0.022464 -0.022464 0.026325 0.038141 0.130102 0.108106 -0.098279 -0.098279 -0.030888 -0.037205 -0.033462 -0.008482 -0.061775 0.010530 0.007078 -0.025389 -0.097343 0.029601 0.058967 0.062243 -0.087515
was 0.012601 -0.000917 0.089920 -0.025083 0.002485 -0.053242 -0.003964 -0.042830 0.046853 0.023426 0.005354 -0.176053 0.039754 -0.010293 0.076668 0.021415 -0.005709 0.103171 -0.027804 0.027449 -0.052059 0.089920 0.037388 0.000070 0.073829 -0.031708 -0.073829 0.109323 0.039281 0.043067 0.035495 -0.050166 -0.032418 0.085660 0.103171 0.068150 -0.016564 0.008637 0.028869 0.000139 0.028514 0.004496 0.080928 -0.001309 0.056081 0.050639 0.026029 0.008992 0.051585 0.024491 -0.007986 -0.061997 0.105064 0.024964 0.023190 0.073829 0.083294 0.038097 -0.028514 -0.020823 -0.035258 0.088026 -0.039044 -0.074775 -0.056555 0.040937 -0.029934 -0.021888 0.004466 0.064837 0.009347 0.031235 0.052769 0.076668 -0.011417 0.059867 0.082347 0.016919 0.062944 0.128727 0.093706 -0.042830 0.041174 -0.014375 0.027922 0.012186 -0.049219 0.096545 0.050639 -0.011772 0.009761 -0.017037 0.032182 -0.030052 0.014080 -0.047563 -0.088026 0.104117 -0.027922 -0.021888 0.021770 -0.009465 -0.101278 0.057974 -0.043777 0.024610 0.004378 -0.047326 -0.038097 -0.066256 -0.055135 -0.002736 -0.019759 -0.000998 -0.027449 0.001767 0.040227 -0.034311 0.127780 0.060341 -0.007809 0.044250 -0.115949 -0.005088 -0.032892 0.068150 0.113583 -0.030999 0.094652 0.024373 -0.060577 0.009998 -0.057738 -0.056791 -0.000044 0.017866 0.070989 0.012009 -0.072409 0.001472 -0.015026 0.051822 0.123994 -0.029106 -0.100331 0.076668 -0.104591 -0.089446 -0.083767 0.003875 -0.014730 0.047563 0.002263 0.124941 0.051822 0.061524 0.030762 -0.063417 0.031708 -0.048036 0.028632 -0.017984 0.048982 0.074302 -0.074302 -0.036678 0.028396 -0.024491 0.100805 0.023545 -0.045670 -0.047089 -0.059631 -0.095599 -0.085660 -0.053952 0.053952 -0.028514 0.110270 0.019404 0.060341 0.071462 0.008814 0.019640 0.082347 0.055135 -0.010885 0.032655 0.041647 0.032655 0.009998 0.023190 0.008933 0.099385 -0.022717 0.097018 -0.007572 -0.068150 0.005324 -0.084240 0.023545 -0.076668 -0.050639 0.017629 0.014612 0.061997 -0.055371 0.068623 0.113583 -0.043540 -0.000499 -0.072882 0.087080 0.065783 -0.100805 -0.006182 0.085187 -0.067676 -0.098438 -0.014553 -0.013488 -0.003150 0.061524 -0.072409 0.070989 -0.004082 0.054425 0.080454 -0.007631 0.059631 0.035021 -0.021178 -0.036678 -0.043777 0.049219 -0.070043 -0.019404 -0.006152 0.012896 -0.037861 0.017274 0.016919 0.087080 -0.067203 0.013606 -0.013902 0.032892 0.034075 0.046380 0.024255 -0.010708 -0.145764 0.055371 0.036441 0.006123 0.064363 0.012246 0.017629 -0.013665 -0.066256 0.087080 -0.044960 0.041174 0.064363 0.019285 0.208235 -0.009110 -0.071462 0.029579 0.043777 0.042120 -0.033365 0.053715 0.047563 0.072882 0.078088 -0.039044 -0.084714 -0.016091 -0.062470 0.059394 -0.007010 -0.079035 -0.017392 0.013488 -0.030762 -0.038334 -0.055608 0.008933 0.014139 -0.145764 -0.022243 -0.084714 0.113109 0.010944 0.053478 -0.050166 -0.058921 0.107430 -0.010648
the 0.074685 0.097911 0.046451 0.049866 -0.062845 -0.112483 0.032789 -0.110662 0.040986 0.028121 -0.053054 -0.071042 0.012011 0.046451 -0.079239 -0.059202 0.005863 -0.040303 0.018899 0.012410 -0.018216 0.086526 -0.160300 -0.001231 0.061023 0.054420 -0.076962 0.080150 -0.002974 0.054648 -0.032561 -0.011499 -0.044857 -0.002818 0.052598 0.013947 -0.067399 -0.048728 0.090169 0.040075 -0.033016 -0.068310 0.030512 -0.057608 0.007343 0.003316 -0.008197 0.036432 0.035749 0.041441 0.065122 0.011783 -0.004156 -0.030967 -0.039847 0.091080 -0.020151 -0.035293 0.011100 -0.012979 -0.105652 0.086981 -0.036660 -0.108385 0.021745 -0.014914 0.024592 0.100188 -0.004355 0.089713 0.026072 -0.050322 0.079695 -0.034383 -0.018899 -0.079695 0.116582 0.134798 0.024933 0.140263 0.049183 -0.173962 0.076052 -0.009905 -0.034838 -0.068310 -0.070131 0.033699 -0.122958 0.005749 0.047361 0.042124 0.009393 -0.140263 -0.056014 0.053737 -0.006461 0.014800 -0.019924 0.096544 -0.000272 -0.043718 -0.015256 -0.073319 -0.064667 0.015256 -0.029373 -0.012808 -0.034155 -0.082882 -0.044857 -0.012296 -0.066944 0.005493 -0.043035 0.037115 0.093812 -0.045995 0.070587 0.036204 -0.155746 -0.089713 -0.094267 0.027096 -0.053965 -0.017988 -0.040075 -0.078329 -0.018557 0.048045 0.007913 -0.033699 -0.139352 -0.017305 -0.033927 -0.071498 -0.036887 -0.057380 -0.018671 0.038709 0.034383 -0.067399 0.005522 -0.058746 0.006888 -0.014800 0.015028 -0.013548 0.007201 0.094267 -0.005209 0.013320 -0.071042 0.052598 -0.012068 0.028576 -0.023225 -0.091990 0.030284 -0.026185 -0.075596 0.019241 0.015028 -0.039164 -0.032561 -0.035066 0.051232 0.012808 0.025047 -0.054648 -0.066944 -0.112028 -0.021290 -0.153014 -0.003373 -0.055786 0.066033 -0.071953 0.048272 -0.040075 -0.045084 0.028007 -0.061479 -0.029601 -0.045540 -0.032561 0.054875 -0.013662 0.168497 0.053054 0.048955 0.053965 0.108840 0.048500 -0.049866 0.017419 -0.014573 0.005379 -0.068310 -0.108385 0.037798 0.058291 -0.040303 0.009848 0.020265 0.039620 0.030512 0.041214 0.053737 0.024364 -0.017077 -0.025161 -0.006290 0.004753 -0.108385 0.003401 0.053737 -0.055559 -0.082427 0.012637 0.042352 -0.043263 -0.016508 -0.058291 0.032106 -0.022542 0.028804 0.089258 0.074230 0.036660 0.026072 -0.080150 0.075596 0.061934 -0.000391 -0.064667 0.033472 -0.031878 0.041897 -0.007201 -0.006916 -0.044401 0.013036 -0.092901 0.022998 -0.092901 0.107019 0.029601 0.020607 0.067399 0.034383 0.023908 0.012751 -0.025502 0.005522 -0.062845 0.047134 -0.026413 -0.042124 -0.016167 0.019696 0.032789 -0.040075 0.061934 0.113850 0.115216 0.003729 0.042124 -0.017305 0.045084 0.042124 0.081061 0.027438 0.035066 0.032106 -0.068765 -0.037570 -0.136619 -0.022770 -0.018216 0.006148 -0.001694 -0.010190 0.086981 0.061023 0.017191 -0.086981 -0.014687 -0.066488 -0.083338 -0.066488 -0.028121 -0.012125 0.015256 -0.017077 0.013833 0.004668 0.003415 0.044401 -0.064211
at -0.035360 -0.022689 0.043905 0.065711 0.040075 0.029319 0.076613 -0.035065 0.041548 0.054513 -0.120224 -0.024605 0.026962 -0.052451 -0.032855 0.021658 -0.033445 0.068363 0.044495 -0.028730 -0.084274 -0.063353 0.020037 0.005562 -0.028730 -0.018048 -0.053629 0.044789 0.032413 0.006740 0.049209 -0.055692 -0.134957 -0.100186 -0.025341 -0.006188 -0.044789 -0.077202 0.002726 0.053924 -0.018048 -0.104312 -0.043021 -0.045968 -0.006483 0.052451 -0.033297 0.136136 0.027699 0.102544 -0.010166 0.088989 0.007035 -0.010092 -0.067184 0.038601 -0.044789 0.067773 -0.004751 -0.060701 -0.169728 0.009871 -0.059523 -0.168549 -0.050977 -0.033003 0.061585 0.116098 0.047147 0.127296 0.068068 0.000088 0.079560 0.010240 0.064237 -0.013923 -0.044200 0.076613 -0.057755 0.030056 0.038307 -0.004623 0.082506 0.055103 0.002597 -0.027551 0.080738 -0.010387 -0.073666 0.024899 -0.059523 -0.009724 -0.009798 -0.060701 -0.106080 -0.030351 0.088400 0.023573 -0.071015 -0.028730 0.058049 0.002210 0.087221 -0.072783 -0.016428 0.000585 0.043021 -0.050093 -0.035213 -0.050388 0.083685 0.016354 -0.071309 -0.051567 -0.009650 0.005267 0.091346 -0.003775 0.153226 0.034181 -0.001169 0.015691 0.044495 -0.035213 -0.028435 -0.001188 -0.045379 -0.033592 0.017091 0.060407 -0.010019 -0.152048 -0.015323 -0.085453 -0.001676 -0.046852 0.050388 -0.029761 -0.085453 0.120224 0.038307 0.014881 0.001390 -0.052156 -0.027846 0.008177 0.042727 -0.098418 -0.076024 0.034476 -0.020774 0.128474 -0.000967 0.044495 -0.016943 -0.053335 -0.076024 0.008693 -0.009429 0.045673 0.041548 -0.046852 -0.016649 0.062469 0.024899 0.070720 -0.007661 0.025047 -0.018417 -0.040075 -0.041548 -0.040075 0.057165 -0.001575 -0.104312 -0.121992 -0.008361 0.062175 0.051861 0.034476 -0.021953 0.063353 -0.056281 0.039780 -0.023131 -0.038012 -0.001436 0.067184 0.068952 -0.045673 -0.021805 0.001639 -0.064237 0.042432 -0.163834 0.006225 -0.007735 0.042432 -0.006704 -0.044495 0.047441 -0.055692 -0.013039 -0.029467 0.018859 -0.079560 -0.000534 0.120224 -0.067184 0.065416 0.026962 -0.049209 -0.053924 0.018859 -0.081917 0.010903 0.013702 -0.028288 -0.057755 0.066595 0.037423 0.109616 0.054513 -0.095472 0.061880 -0.064532 0.015986 0.012229 0.006262 -0.057460 0.026225 -0.126706 -0.000523 -0.006446 -0.003407 -0.044495 0.044789 0.061880 0.074845 0.093114 0.002689 0.067184 -0.071899 -0.139672 0.014807 0.003591 0.011787 -0.019595 -0.090757 -0.069541 -0.088400 -0.005451 0.017238 -0.080149 0.091936 -0.035802 0.030793 0.068363 -0.069836 0.033887 0.048915 0.010092 0.070131 0.016796 0.088989 0.010387 0.054513 0.045968 0.087221 -0.014807 -0.031382 0.028435 0.043611 0.055397 0.072488 -0.085453 -0.013776 -0.075140 -0.040664 -0.035655 -0.022689 -0.048620 -0.041843 0.031677 0.049504 0.011713 -0.048915 -0.056281 0.041253 -0.012818 -0.019890 0.031824 -0.068952 0.113152 0.001786 -0.001657 -0.028435 -0.065121 -0.052156 -0.019301
be -0.119318 -0.046146 0.066798 0.078525 -0.038243 0.045127 0.033399 0.050481 0.030467 0.074956 -0.015297 -0.097392 0.006246 0.025878 0.038243 0.066288 0.022563 0.064758 -0.017592 0.002804 0.011664 -0.031614 0.101471 -0.001992 0.069857 -0.002119 -0.107080 -0.030212 0.067817 0.009051 -0.050226 -0.006884 -0.110139 0.081075 0.150932 -0.037988 0.028045 -0.012110 0.050226 0.002502 0.126456 0.073936 0.042067 -0.035438 -0.024093 -0.047676 0.029447 0.098922 0.000801 0.047931 0.056854 0.068837 0.042832 -0.036458 0.035948 0.000649 0.054050 -0.019759 0.023966 0.008158 -0.040028 0.008541 -0.038243 0.047421 -0.045127 0.022181 -0.044107 0.103001 -0.038243 0.087704 0.020779 0.046911 0.105040 -0.026388 0.023838 0.009624 0.099941 0.040792 0.012238 0.111669 0.064248 -0.090763 0.063993 -0.035183 0.034419 0.039518 -0.019121 0.058639 0.055070 0.002071 0.007680 0.010835 0.005991 -0.078015 0.057364 -0.046911 0.033399 0.026770 -0.023201 -0.035948 -0.018866 -0.045636 0.050990 0.059659 -0.113199 -0.054815 -0.067307 -0.084134 -0.005322 -0.004717 0.046656 0.002980 -0.018229 -0.042322 -0.027280 -0.052010 -0.025113 -0.077506 0.121867 0.043852 0.031104 -0.059404 -0.040792 0.064248 -0.082605 0.031869 0.016954 0.000948 0.085664 -0.024985 0.047166 -0.009433 -0.032634 -0.066288 -0.036203 -0.037733 0.000054 -0.048951 -0.023073 0.071897 0.074956 -0.042322 0.013258 0.021798 0.010198 -0.054305 0.016827 -0.050990 -0.052010 -0.025113 -0.099941 0.054815 -0.047676 -0.014277 0.017209 -0.087194 -0.035693 -0.107080 -0.047931 -0.013321 0.052775 0.057109 0.042067 -0.009369 0.030849 -0.040282 -0.021543 0.022181 -0.042322 0.023711 -0.118808 -0.164189 -0.101471 -0.087194 -0.043852 -0.065013 0.009433 -0.053285 0.035693 0.058639 0.013194 -0.053795 -0.030849 0.111669 -0.069857 -0.009497 -0.006629 0.006214 0.065778 0.091783 -0.003617 0.049716 0.009688 -0.029702 -0.059404 -0.059914 -0.073426 -0.053540 0.003729 -0.047421 0.057619 -0.047931 -0.031232 -0.009369 -0.039263 0.001745 -0.056854 -0.012174 0.077506 0.020906 -0.041812 -0.086174 0.052775 0.054560 -0.115238 0.022181 0.059659 -0.087704 -0.062973 -0.023838 -0.022181 -0.112179 -0.033399 -0.082095 0.083114 0.012620 0.022053 0.078525 0.055070 0.001203 0.034164 0.013704 -0.063738 -0.037733 0.118298 0.009879 -0.111669 0.025623 0.047676 -0.004748 0.012620 0.041557 0.072406 -0.030594 -0.041302 -0.025878 -0.028937 -0.007649 -0.074956 0.018866 -0.026515 -0.023711 -0.031487 0.032251 0.071387 0.030084 0.019759 0.066288 -0.017209 -0.058894 0.103001 -0.108100 -0.052010 0.164189 0.041047 0.138694 0.020779 0.043852 0.008127 -0.057619 0.099941 0.050990 0.068837 0.085664 0.019121 0.007585 0.004366 -0.111669 0.031104 -0.025495 0.070367 0.020269 0.034419 -0.019631 0.044617 -0.026643 -0.058384 -0.075466 0.052265 0.106060 -0.057364 0.033909 0.061189 0.023711 0.112179 0.022436 -0.072916 -0.111159 0.098412 -0.075976
from 0.034845 -0.000105 0.045680 0.031917 0.015080 0.012518 -0.041580 -0.079647 -0.041580 0.098387 -0.062956 -0.048022 -0.032503 0.017642 -0.061199 -0.015300 0.085503 0.090774 -0.011493 0.008382 -0.045387 0.056807 -0.077304 -0.045387 -0.004667 -0.080818 0.029428 0.097216 0.070862 -0.019033 0.043923 -0.104244 -0.047144 0.000583 -0.099558 0.067641 -0.070862 -0.065299 -0.091945 0.092531 -0.022693 -0.048608 0.015959 -0.017862 -0.045973 -0.004264 -0.080818 -0.068227 -0.024450 0.028403 -0.026207 0.006039 0.008602 -0.037774 -0.038652 0.110686 -0.083161 0.074376 0.050072 -0.069691 -0.094873 -0.009224 -0.027671 -0.130012 0.069691 -0.010175 0.018448 0.101901 0.039238 0.087260 0.029575 -0.168664 0.060321 -0.022840 -0.029428 0.101901 0.048901 0.015153 -0.029428 -0.094873 -0.009114 -0.015519 0.062663 0.063249 -0.031771 -0.114199 -0.060028 -0.081989 -0.075547 -0.004063 0.022108 0.132940 -0.070569 -0.037042 0.012225 -0.024890 -0.043923 0.010175 0.056514 0.068812 -0.016837 -0.050658 0.019765 -0.037188 0.007650 -0.061785 0.030160 -0.027964 0.052415 -0.058857 -0.036163 0.053586 0.034406 -0.019472 0.011713 0.096630 0.041873 0.090774 0.052707 0.090774 -0.059149 0.015300 -0.057393 0.061785 -0.032210 -0.022401 -0.022108 -0.076133 0.008565 0.055928 -0.031917 -0.060321 0.008455 -0.038652 -0.007101 -0.123570 0.026647 -0.069105 -0.013104 0.020205 -0.012225 0.028257 0.001775 0.025182 0.082575 -0.026354 0.038066 -0.029428 -0.068227 0.027818 0.090188 0.043044 0.048901 0.097216 -0.080818 -0.031478 -0.065006 -0.003898 0.002837 -0.033089 0.009151 0.084332 0.025914 -0.016325 -0.021083 -0.010615 0.024890 0.080818 0.025914 -0.020937 -0.116542 -0.092531 -0.050658 -0.061199 -0.029868 -0.004465 -0.023718 0.024011 -0.019326 0.005673 -0.027086 -0.098387 -0.046558 0.061199 -0.044801 0.004758 -0.062078 0.022693 0.072033 0.016544 0.042166 -0.045973 0.040116 0.009809 -0.149923 0.004264 -0.090774 -0.120056 -0.017423 -0.044216 0.032356 -0.032942 -0.034845 0.021669 -0.048608 0.145824 -0.021083 -0.037481 -0.030307 0.003642 -0.042752 -0.030600 -0.060321 0.018521 0.016471 0.008272 0.014129 0.074962 0.021376 -0.051243 0.003148 -0.022108 0.085503 -0.065006 0.017642 -0.035870 -0.079061 0.004612 0.123570 -0.034992 0.095459 -0.142896 -0.025329 -0.026500 -0.013250 -0.035431 0.012884 -0.035724 -0.016471 0.084332 -0.022254 -0.028403 0.080232 -0.067641 0.054171 0.060028 0.053586 0.012957 0.051829 0.072033 0.095459 -0.019326 0.055343 0.004978 0.019180 0.012884 0.083746 0.129426 -0.018887 -0.030160 -0.024304 0.024158 0.038652 0.042166 0.081989 -0.031185 -0.045094 0.077304 0.074962 -0.055636 0.096045 -0.028550 0.024450 -0.036017 0.099558 -0.095459 -0.054757 -0.031039 -0.010175 0.026647 -0.081404 -0.074376 -0.045094 0.065884 -0.025768 0.069105 -0.087260 -0.055343 -0.028111 -0.015153 -0.178034 0.035138 0.000947 0.009370 -0.005856 0.081989 0.066763 0.006076 0.038652 -0.017789
by -0.069382 -0.018882 0.095437 0.083141 -0.003037 0.016906 -0.020346 -0.069382 0.019468 0.083141 -0.060014 -0.076115 -0.023713 -0.010978 0.000141 -0.048304 0.027079 0.058843 -0.033959 0.036008 0.053281 0.030153 -0.009880 -0.033374 0.128225 0.008563 -0.079043 0.019175 0.018663 0.075530 -0.002086 -0.093095 -0.101292 0.084312 0.096022 -0.022542 -0.056794 -0.023420 0.102463 -0.030739 0.087825 0.057672 -0.015955 0.023420 0.081385 0.031617 -0.024884 -0.031178 0.094266 0.056208 0.003403 0.076115 -0.003184 -0.028836 0.032495 0.100121 0.023127 0.020785 -0.058843 -0.044791 -0.080214 0.016174 -0.062356 -0.014930 -0.046255 -0.014198 -0.000732 0.063820 0.026201 0.117686 -0.013247 -0.047718 0.014930 0.023274 -0.006477 0.135836 0.052110 0.102463 0.030446 0.046255 -0.000782 0.003861 0.025030 0.015150 0.055037 -0.048011 -0.040400 0.024006 -0.021078 -0.042156 -0.056794 0.108903 -0.045376 -0.034252 0.172137 0.068504 -0.087825 -0.009661 -0.003422 -0.025908 0.131152 -0.064698 -0.030885 0.057379 -0.024152 0.069382 -0.045962 0.028690 0.016833 -0.062356 0.038643 0.029129 -0.042742 0.019614 -0.040400 -0.048889 0.026201 0.000659 0.102463 0.118857 -0.073773 0.105390 -0.111245 -0.004757 0.037033 0.020053 0.034252 -0.001317 0.119442 0.039229 -0.001692 0.059136 0.002333 -0.052695 -0.045084 0.015150 -0.036740 -0.033081 -0.076115 -0.003604 0.082556 -0.020053 -0.044205 0.046840 0.025030 -0.035569 0.035276 0.000556 0.051817 0.055037 0.032349 0.024884 0.081970 0.113587 0.050646 -0.087825 -0.035276 -0.099535 0.020053 0.003129 -0.005928 0.049768 0.029714 0.063820 -0.073773 -0.006843 0.006441 -0.044791 -0.018882 0.007429 -0.087825 -0.124126 -0.041278 -0.094266 -0.116515 -0.052695 -0.027226 0.051231 -0.033374 -0.050060 -0.030739 -0.098364 -0.070260 0.067625 -0.036301 0.010685 -0.020493 0.063527 0.050353 0.031032 0.036301 0.007648 -0.006075 0.017638 -0.048304 -0.058550 -0.002873 0.009185 -0.012954 -0.019761 0.074944 -0.021078 -0.047133 -0.009368 -0.007246 0.096022 0.039814 0.035716 0.050060 -0.052110 -0.032642 -0.098364 0.058257 0.060892 0.005745 0.014125 0.050353 -0.025177 -0.024445 0.028982 -0.014784 -0.040692 0.036594 -0.105976 0.021078 0.028250 0.016467 0.084312 0.160427 -0.030739 0.056501 -0.031324 0.018736 0.020200 -0.052402 -0.054452 0.006221 0.066747 -0.052695 0.006075 -0.110074 -0.037472 0.120613 -0.005343 0.014345 0.078457 0.187360 0.055037 -0.062649 0.013247 0.034984 -0.086654 -0.062649 0.058843 0.043327 -0.108318 0.069382 -0.017419 0.051817 -0.054452 0.045084 0.040400 0.009331 0.067625 -0.007209 0.077286 -0.009441 0.083141 0.104219 0.003806 0.044205 0.040107 -0.071431 0.054744 0.010466 -0.053281 -0.033081 -0.071138 0.073773 0.003367 0.020493 0.087240 -0.034984 -0.025177 0.094266 0.041571 -0.085483 -0.023566 0.048889 0.036155 -0.072895 -0.044791 -0.041571 0.021078 -0.019322 0.028543 -0.127639 0.015735 -0.037472 -0.024884
I 0.033286 -0.002119 0.047052 0.089584 0.055065 -0.006190 -0.014896 -0.032669 0.017157 0.048285 0.000620 -0.122459 0.001926 -0.084242 -0.080954 0.033697 0.042532 0.020444 0.066161 -0.040066 -0.021060 0.105200 0.138896 -0.040888 -0.023423 -0.002992 -0.070681 -0.057120 0.021471 -0.002517 0.045408 0.069448 -0.016643 -0.016643 0.018184 0.050751 0.056709 0.039450 0.003827 0.069037 0.089584 -0.022396 0.140540 0.006678 0.043970 0.101501 -0.007962 -0.017670 0.024553 0.013766 0.041505 0.079722 0.017362 0.006318 -0.024759 0.043148 0.006472 0.013458 0.011455 -0.057942 0.053422 0.026916 -0.057120 -0.005111 0.032053 -0.009760 -0.089173 0.088351 -0.008219 0.008578 0.067804 -0.003775 0.019622 0.016335 -0.193962 -0.075612 0.053833 -0.002376 0.101501 0.091639 -0.010941 -0.049312 0.080543 -0.017054 -0.076845 -0.040477 -0.021266 0.116706 0.000366 0.026505 -0.055065 0.055887 -0.027944 0.014691 -0.113418 0.011249 0.049723 0.055887 -0.010479 -0.073558 -0.098625 -0.029587 0.038628 0.013458 -0.045408 0.057531 -0.048490 0.003082 0.017773 -0.107665 -0.116706 -0.044792 0.010993 0.038217 0.060408 -0.081365 -0.031231 -0.087940 0.089584 -0.073147 -0.020958 -0.045614 -0.008578 0.096570 -0.040272 -0.025683 -0.044997 0.014177 0.007911 0.021163 -0.152046 -0.103145 -0.146293 -0.018492 -0.076845 -0.060819 -0.025889 0.089995 0.040683 0.075612 -0.009092 0.013047 0.029587 -0.030615 0.030409 0.044792 -0.105200 -0.087529 -0.015924 -0.006087 0.072325 0.073968 -0.142184 0.023218 -0.008270 0.056298 -0.006935 -0.019109 -0.070681 0.035957 0.041915 -0.008424 -0.026711 0.136431 -0.010119 -0.096570 0.041915 0.037395 0.057942 -0.023218 -0.088762 0.078900 -0.016129 -0.070681 -0.046847 0.022088 0.078900 -0.063695 0.030615 -0.008219 -0.029176 0.071092 0.049312 0.043559 0.012225 0.023012 -0.108487 0.049312 0.029587 -0.019828 -0.015616 0.069448 -0.004880 -0.019519 0.048901 0.040066 -0.038423 0.008065 -0.037395 -0.086297 -0.055476 0.050751 0.020958 0.041505 0.011866 0.019725 -0.078078 -0.026711 0.031642 0.049518 0.034313 0.006061 -0.046847 0.003955 -0.100268 -0.075612 0.111775 0.017568 -0.036162 -0.026505 -0.082187 0.015102 -0.013869 0.017568 0.098214 -0.147937 0.069448 -0.026300 -0.063695 -0.042121 0.016746 -0.005650 0.005188 -0.003955 0.050956 0.028355 -0.077667 0.066983 0.050956 -0.049312 0.001271 0.048080 0.049518 -0.032258 -0.069448 -0.040272 -0.039039 0.053833 -0.039450 0.017773 0.091228 -0.036162 -0.024759 0.067393 0.015616 0.007191 0.001374 -0.055476 -0.073558 -0.115884 -0.014383 -0.044381 0.030409 -0.023321 0.038833 0.076434 0.016848 0.030615 -0.060408 0.056298 -0.022601 0.064106 0.111775 0.103556 -0.022807 -0.030204 -0.035751 -0.107665 -0.034930 -0.013766 0.034519 0.000324 0.020239 0.071914 0.058764 0.015102 -0.027533 -0.115062 -0.095748 0.040272 -0.053011 0.064517 -0.129034 -0.033080 -0.036368 -0.048285 -0.012328 -0.002851 0.017978 -0.043559
will 0.023966 0.081964 0.082923 0.042899 -0.030557 -0.017495 0.064229 -0.017136 0.019293 0.018214 -0.067584 0.072857 0.048412 -0.015338 0.006201 0.037387 0.024326 0.113120 0.054163 0.005902 -0.098261 -0.020251 0.091071 0.057758 -0.018334 -0.032594 -0.071898 0.028640 -0.025764 0.024086 0.009646 -0.004883 -0.064229 -0.023607 0.058238 0.024925 -0.017375 0.017735 0.026842 -0.116955 0.037866 -0.080526 0.088195 0.018574 0.011863 -0.105451 0.061353 0.033313 0.007549 -0.109765 -0.052246 0.065667 0.020371 0.081964 0.089154 0.010066 -0.003580 -0.011084 0.074295 0.002412 0.003295 0.016297 -0.082923 -0.044098 -0.029239 0.008388 0.016537 0.176391 0.038825 -0.003310 0.043618 0.031875 0.088675 0.029718 -0.024326 -0.078130 0.111203 0.126541 -0.012103 -0.014320 0.058957 -0.104492 0.028759 0.012103 -0.013960 -0.001063 -0.059196 0.025284 0.088195 0.131334 0.059196 -0.122707 0.023127 -0.115517 -0.021210 -0.098261 -0.016656 0.022049 0.012462 0.073336 0.052246 0.003370 -0.037627 0.025883 -0.118393 -0.034032 -0.057279 -0.076692 0.018813 0.000996 -0.040982 -0.052246 -0.018813 -0.016417 0.042180 0.026243 -0.015937 -0.005572 0.057998 0.045775 0.047693 -0.017975 0.001191 -0.003101 -0.014260 -0.083881 -0.046734 0.017256 -0.027321 0.007040 -0.022528 0.048891 -0.046734 -0.019053 -0.051527 -0.073816 0.056800 -0.058477 0.089154 0.057758 -0.008448 -0.059436 0.072378 -0.072378 0.040023 0.036668 0.070460 -0.090592 0.050808 -0.087237 -0.076212 0.094906 0.075733 0.003865 0.049850 0.043618 0.028759 0.016656 -0.083881 -0.049370 0.043858 -0.012522 0.001887 0.021210 0.039544 -0.024565 0.049610 0.074295 0.020731 -0.060395 -0.048172 -0.053924 -0.024206 -0.022768 0.041461 -0.068064 -0.019532 0.073336 0.021929 0.089154 -0.062791 0.048172 -0.031875 0.058717 -0.049610 -0.043618 0.037387 -0.051527 0.187894 0.046734 0.025164 0.059196 -0.008268 -0.076212 -0.017375 0.030317 0.006501 -0.042660 -0.081964 -0.085319 0.050808 0.037627 0.015458 0.026962 -0.094906 0.070940 -0.025164 0.048651 0.132293 0.015458 -0.072857 0.025644 0.025883 0.044337 -0.018214 0.048891 0.110723 -0.091071 -0.094426 -0.001266 0.007190 -0.092509 -0.083402 -0.073816 -0.028879 -0.045775 0.020731 0.053924 -0.048172 -0.009946 0.008328 -0.006261 -0.006561 0.065188 0.075254 0.004374 -0.040023 -0.015578 0.049370 0.085319 0.009886 -0.024086 0.095385 -0.081964 -0.043618 -0.044098 0.006441 -0.047693 0.048891 -0.041222 -0.056320 -0.068064 0.095385 -0.027561 0.042420 0.058957 0.096344 0.071898 -0.080526 0.027681 -0.008148 0.007969 -0.001827 0.082443 0.066626 0.049850 -0.027921 0.025883 -0.004494 0.002621 0.188853 0.038825 0.020132 0.045536 0.077171 0.029239 0.032354 0.026123 -0.031396 0.042180 -0.057758 -0.052965 -0.011923 0.004434 0.047693 -0.067584 0.038346 0.006920 0.159135 0.011504 -0.071898 -0.007459 -0.031875 0.030916 0.081964 0.091071 0.002936 -0.112641 -0.004763 -0.046974
their 0.037882 0.101525 0.000268 0.074249 -0.105060 -0.024118 0.025002 -0.032831 -0.059097 0.013827 -0.004577 -0.018562 -0.019699 0.144458 -0.169713 -0.018310 0.122234 0.106576 -0.015847 0.025507 -0.069198 -0.074249 -0.069198 0.010291 0.057834 0.036620 -0.009660 0.019573 -0.015595 -0.084857 0.047227 0.007135 -0.061117 -0.033084 0.030180 -0.010607 0.046469 -0.024118 0.060359 -0.044196 0.020330 -0.021593 0.061117 0.005177 0.069198 -0.021340 0.003236 0.118193 0.058591 0.083341 0.072734 0.108596 -0.022224 0.066673 -0.046469 0.012880 -0.062380 -0.049752 0.034094 0.053035 0.012564 0.039398 0.002084 -0.031064 -0.014900 -0.020456 0.017047 0.056571 -0.012627 0.056318 -0.002889 0.065663 0.020078 -0.004025 -0.026518 -0.073744 0.052025 0.063390 0.038135 0.027149 -0.077785 -0.129305 -0.023235 0.024245 -0.024750 0.016416 -0.072734 -0.071724 -0.104555 0.128295 -0.020583 0.014964 -0.020583 -0.090413 0.020709 0.022982 -0.015658 0.013511 -0.010102 -0.020078 0.048489 -0.127285 -0.062632 -0.000884 0.013259 -0.051520 0.006345 0.050510 0.132336 -0.044701 -0.080816 0.035357 -0.038640 0.027149 0.020204 0.045711 0.075765 -0.010291 -0.034094 -0.017300 -0.076270 -0.038135 -0.001231 0.002226 -0.034852 -0.017931 -0.125770 -0.095969 -0.029927 0.045711 0.006251 -0.045206 -0.056824 0.013764 -0.041166 -0.037630 -0.040660 -0.069198 -0.070714 -0.022351 -0.023361 -0.052278 0.020456 -0.051267 0.026265 0.014395 0.023740 -0.045964 -0.042176 0.037377 0.002131 -0.010923 -0.062380 -0.063895 -0.056318 -0.009155 -0.065663 -0.034347 0.015090 0.019320 -0.064148 0.004483 -0.019699 0.070714 0.012122 -0.074249 -0.024371 0.006345 0.026139 -0.083341 -0.149509 -0.126780 -0.083846 -0.052278 -0.025002 0.013322 0.041166 0.010418 -0.023613 0.030685 -0.033842 0.061369 0.040660 -0.081826 -0.030937 -0.080816 -0.085867 -0.025002 0.130315 -0.029801 0.000064 -0.064653 0.018689 -0.061622 -0.098999 -0.047984 0.017552 0.082836 -0.056571 -0.114657 -0.002510 -0.026265 0.036872 -0.017173 0.045711 0.050257 -0.021088 -0.003157 0.001129 -0.027654 0.002904 0.031821 -0.050510 0.001586 -0.018310 -0.033589 0.080311 -0.017426 -0.191937 0.004072 -0.039650 -0.008460 -0.016668 -0.117688 -0.016163 -0.028664 -0.087382 0.044701 0.038893 -0.059097 0.089908 -0.073744 0.039398 0.077785 0.018436 -0.011491 -0.013511 -0.019067 -0.052025 -0.040408 -0.049247 -0.056824 -0.033336 -0.045459 0.037882 0.038135 0.022729 0.130315 -0.110111 0.031064 0.018184 0.007419 0.027023 -0.005019 -0.019573 -0.098999 0.077280 0.012186 0.015784 0.063137 -0.037125 0.081321 -0.094453 0.127285 0.118698 0.084857 -0.110111 0.126780 0.010544 -0.051773 0.014016 0.126780 0.000990 0.097484 -0.010291 -0.048489 -0.018815 -0.017047 -0.012375 -0.008018 0.041418 -0.088392 0.072229 0.022098 -0.012564 0.071219 0.007229 0.124254 -0.019699 -0.044196 0.000406 0.037882 -0.029169 -0.062380 -0.093443 -0.027528 0.004325 0.007861 0.035104 0.029927
$ 0.046337 -0.047928 0.026450 0.054093 0.022373 -0.040371 0.029035 -0.005419 0.110573 -0.034206 -0.053298 0.152733 0.017700 -0.042559 -0.014816 0.053695 -0.077958 -0.042956 0.058468 0.049917 -0.013026 -0.023268 -0.004201 -0.124891 -0.039377 -0.009446 -0.032217 0.083128 -0.027047 -0.033410 -0.052104 -0.023069 -0.017004 -0.018793 0.039178 -0.068412 0.002710 -0.040371 -0.033808 0.039973 0.070003 0.019887 0.064434 -0.116936 -0.160688 -0.003406 0.060855 0.065628 -0.093867 0.034604 0.001653 0.008651 0.097447 -0.127278 -0.108186 0.005718 -0.031819 -0.054093 0.034803 0.033808 -0.053695 0.032814 0.034007 0.018396 0.086310 -0.111368 0.011336 -0.061252 0.105004 0.015810 0.029632 -0.044348 0.038581 0.090288 0.031819 -0.036393 0.077958 0.005022 0.019887 -0.002225 -0.026052 -0.105800 -0.081537 0.135233 -0.052502 0.037189 -0.000600 0.069605 0.015910 -0.058070 0.088299 0.108186 0.004350 -0.158302 -0.040371 0.010590 -0.045740 0.028637 -0.032217 -0.009745 0.058070 -0.106595 -0.065628 -0.031819 0.044945 -0.011187 0.062446 -0.009496 -0.032217 -0.007855 -0.013623 0.001690 0.062843 -0.024660 0.001181 0.091083 0.049718 0.005916 0.060457 0.030030 0.116141 -0.031422 0.075173 0.009794 0.147960 0.014020 0.089890 0.029035 0.076764 0.064434 -0.016407 0.032217 -0.051707 -0.016904 -0.066025 -0.044945 0.041365 -0.052104 -0.015711 0.101027 0.038183 -0.001255 0.052502 -0.000106 0.017302 -0.056877 0.097845 -0.011932 0.058468 -0.009596 0.038382 -0.041962 -0.023666 -0.040371 -0.028240 0.021776 -0.056082 -0.045740 -0.095458 -0.005419 0.050911 0.048525 0.105004 0.030030 -0.042559 0.044149 0.098640 -0.037786 -0.043155 -0.020086 -0.012181 -0.052900 0.036592 -0.044547 -0.063241 -0.008800 0.032615 0.000350 -0.043553 0.005941 -0.097447 -0.040172 0.015711 0.009049 -0.050911 -0.041564 0.006165 0.066821 0.054889 -0.017401 0.002150 -0.029831 0.036592 -0.105800 -0.108186 0.079946 0.001516 -0.056480 -0.023765 -0.041962 -0.039774 0.087106 0.024859 0.087901 -0.028041 -0.010988 -0.107391 -0.033410 0.004947 0.023069 0.011883 -0.021180 -0.032018 0.069605 -0.037189 0.099834 -0.002797 0.050513 0.003977 -0.027047 -0.046536 0.079151 0.014816 0.024262 0.036393 -0.100629 -0.010838 0.011485 0.084719 -0.068810 0.005643 -0.024163 -0.030228 -0.083924 -0.092674 -0.024163 0.022771 -0.121709 0.037388 0.019092 0.056877 0.056082 0.109777 -0.016506 0.026251 0.035001 0.043553 -0.038183 0.095061 -0.093867 0.088697 0.056480 -0.056082 0.073185 -0.014418 0.053695 0.030427 0.031024 -0.032018 0.035598 0.094663 -0.008104 -0.051309 -0.034206 -0.061650 0.030030 -0.068810 -0.067616 0.037786 0.035399 -0.080742 -0.013424 0.058866 -0.086708 0.103413 0.014816 -0.079151 -0.021876 -0.044547 -0.006712 0.013523 0.064434 -0.043752 0.058468 -0.024561 -0.091879 0.002871 0.098640 0.107391 -0.063639 -0.097049 -0.030228 -0.030030 0.058866 0.054889 0.048525 0.040968 -0.011286 0.077162 -0.060059
up 0.058075 -0.009738 0.100097 0.070351 -0.104819 -0.045563 0.029864 -0.043675 -0.028447 0.078378 0.002405 -0.060200 0.033759 -0.051701 -0.042966 -0.065158 0.012925 0.054062 -0.034940 -0.086405 0.014991 0.051229 0.007968 0.004456 0.079322 0.012040 -0.049576 -0.039189 0.002243 0.027031 -0.000306 -0.003453 -0.044619 -0.113318 -0.055006 0.031162 -0.100097 -0.050993 0.015109 0.105763 0.119928 -0.131260 0.029156 -0.071296 -0.077434 -0.005253 -0.009325 0.057839 0.063269 -0.023018 0.066574 -0.067518 -0.035412 -0.013811 -0.094904 -0.042730 -0.014637 0.011391 0.021837 -0.091598 -0.076962 0.059492 0.003689 -0.136926 -0.102930 0.031635 -0.084044 0.038481 0.049104 0.118984 0.086877 0.053590 0.117095 0.143536 -0.093487 -0.002597 0.009738 0.080739 -0.049340 -0.023962 0.049576 -0.049576 -0.055478 0.020893 0.073184 -0.026087 -0.090182 0.029510 -0.000391 -0.010683 0.049340 0.044383 -0.030690 -0.151090 -0.035648 0.038245 0.010505 -0.017824 -0.075545 -0.087821 -0.108596 -0.097737 -0.008086 0.023608 -0.051937 -0.016407 0.002612 -0.017824 -0.035648 0.047688 0.011922 0.076489 0.023372 -0.003954 0.040133 -0.023608 0.040369 0.125594 0.000012 0.038245 -0.045091 -0.049104 -0.053118 0.020185 0.018178 0.023018 -0.069407 0.035176 0.002803 0.028447 -0.106707 -0.001195 0.059728 -0.030690 0.051701 0.095848 0.018178 -0.035648 -0.098209 0.011686 0.006964 0.013870 -0.025142 0.079795 -0.095848 0.003025 0.016407 -0.050757 0.012807 0.078850 0.032815 0.010387 -0.064213 0.015581 0.022073 0.081683 -0.123705 -0.077434 -0.005194 0.061380 0.004279 0.077906 -0.046744 0.045563 0.029510 -0.070351 0.014814 -0.066102 0.021483 -0.130315 -0.133148 -0.022309 -0.031871 -0.012040 -0.111901 -0.022664 0.016407 -0.007968 -0.025615 0.042022 -0.002405 -0.017470 0.064686 0.059256 -0.075073 -0.022664 -0.040842 0.057131 0.101986 -0.024080 0.052646 0.016171 0.052646 -0.017234 -0.031162 -0.041078 0.016053 0.000367 -0.103875 -0.089710 0.063741 0.066574 0.040369 -0.051937 0.064213 0.055715 -0.063741 -0.004367 0.089238 0.031635 -0.011922 0.004781 -0.026559 0.103402 0.011214 0.090182 -0.015109 0.033759 -0.022073 0.028093 -0.057367 0.077434 0.007909 -0.046271 -0.060200 -0.038245 -0.028565 0.086405 0.023254 0.026677 0.011568 -0.054062 -0.029746 -0.066102 -0.044855 0.019949 0.030926 0.045327 0.029274 0.078378 -0.053826 0.010978 -0.055242 0.042730 -0.037300 -0.039661 0.040133 0.066102 0.000889 -0.040133 -0.064213 -0.026559 -0.035176 0.080739 -0.010446 0.009856 0.078850 0.000073 0.009266 -0.035648 -0.030454 0.044383 -0.109068 -0.042022 0.009266 0.062797 -0.057603 0.005607 -0.027031 0.015935 -0.027739 0.016644 0.065158 -0.015109 0.026913 -0.080739 0.043202 -0.114734 0.009030 0.029628 0.058075 -0.016644 -0.061380 -0.042258 0.031871 0.040133 -0.038953 0.022664 0.022900 -0.005990 0.167144 0.039189 -0.120400 0.036356 -0.040369 -0.000415 -0.058784 0.110957 -0.142591 0.005754
first 0.068539 -0.049971 0.015087 0.041233 0.035771 -0.096119 -0.097757 -0.055432 0.125610 0.066628 -0.018295 -0.123425 0.013448 0.037137 0.000326 -0.081919 0.023347 -0.049425 0.064170 0.013721 -0.071543 0.042325 -0.097757 -0.036318 -0.033041 0.002748 0.013995 0.025805 0.049698 0.154008 -0.091750 -0.045329 -0.052155 0.019797 0.024985 0.023757 -0.057617 -0.102672 0.026760 0.023210 0.058982 -0.152916 0.035771 0.051882 0.076458 0.100488 0.023484 -0.030447 -0.005700 0.008192 0.052974 -0.028945 0.080281 0.071543 -0.062532 0.046421 -0.028126 -0.034952 0.007680 -0.009899 -0.101580 -0.024985 -0.034133 -0.102672 -0.042598 0.032495 0.020889 0.045875 0.025805 0.117964 -0.012834 -0.021572 0.006178 0.048332 -0.055432 0.033450 0.002577 0.108133 -0.004881 0.055705 0.061986 0.006417 -0.062259 -0.021982 0.042871 -0.092842 -0.084650 -0.004813 0.007543 -0.012697 0.008431 -0.032768 -0.070997 -0.058163 -0.009967 -0.110864 -0.060074 -0.045875 -0.108133 0.127248 0.015565 -0.089019 0.003806 -0.070997 -0.089565 0.012971 -0.008875 -0.021845 -0.011469 -0.006997 0.103218 0.020753 -0.033041 0.002611 0.068812 0.039867 0.005325 0.039048 0.091203 0.041506 -0.060074 -0.051609 -0.013107 0.063624 0.003430 0.035498 0.034543 -0.067447 0.034543 0.133801 -0.078096 0.008875 -0.161654 0.017749 0.007031 -0.048605 0.030037 0.010650 -0.039048 0.037410 -0.094480 -0.001067 0.076458 -0.012561 -0.052428 0.056524 -0.058709 -0.052701 -0.030993 -0.071543 -0.030720 0.039867 -0.070997 0.096665 0.013858 0.067993 -0.053794 -0.012493 -0.005018 -0.054613 -0.060074 -0.050790 0.063351 -0.075366 0.014882 0.034406 0.061166 -0.024166 -0.006110 -0.014677 0.025395 -0.096665 0.051882 -0.011400 0.001997 0.023074 0.024712 -0.041233 -0.018159 -0.039594 -0.025668 -0.149639 0.009421 0.101580 -0.035225 0.030174 0.003533 0.022118 0.076458 0.029901 0.017886 -0.029627 0.018841 0.002458 0.015565 -0.023347 0.105949 0.039594 -0.062532 -0.074273 0.000828 0.045602 0.065535 0.036591 0.033314 -0.087927 0.011605 0.020753 0.027033 -0.026351 -0.081373 0.135440 0.039594 0.079735 0.007509 -0.034270 0.023484 -0.038502 0.004676 -0.093388 -0.032085 0.114687 0.040687 0.048605 0.055978 -0.028672 -0.000811 0.013653 -0.002185 -0.005495 -0.013858 0.022801 -0.039321 0.059255 0.018022 -0.051882 0.045056 -0.036591 -0.065535 -0.018841 0.016316 -0.048059 0.073181 -0.102126 0.036044 -0.024303 0.048605 0.049971 0.064170 -0.042598 -0.017886 -0.086834 0.013175 -0.068266 -0.009557 0.080827 0.058163 -0.037410 -0.105949 -0.121240 0.014268 0.083012 -0.031129 0.000841 0.008328 0.007816 0.029764 -0.039321 -0.104311 0.064989 -0.027579 0.021982 0.137624 0.048878 0.048059 -0.079735 -0.113049 -0.048605 -0.083012 -0.081919 0.098303 0.026078 -0.011059 0.102126 -0.023893 -0.022255 -0.044783 -0.065535 -0.052974 0.060620 -0.051336 -0.019797 -0.041506 0.033177 0.024985 -0.023484 -0.081919 -0.035771 -0.040140 -0.077550
when 0.108774 0.015461 0.088262 0.014141 0.043820 -0.057805 -0.020201 -0.085154 0.113746 0.099450 0.004176 -0.160364 -0.071480 -0.009867 -0.137366 -0.072412 0.024552 0.091370 0.072723 -0.054076 -0.015073 -0.051590 0.016627 -0.001141 0.018647 0.000176 0.049104 0.106287 0.105666 0.119962 -0.041023 0.031700 -0.049414 0.064021 -0.014063 -0.067440 0.031078 -0.032787 -0.005788 0.069304 0.055941 -0.048171 0.157256 -0.069304 -0.036672 0.078317 -0.025640 -0.030612 0.053765 0.126177 -0.042577 -0.012509 -0.066818 0.011421 0.025173 0.052211 -0.021910 -0.002855 -0.025795 -0.030457 -0.054698 0.022376 -0.056562 -0.067129 -0.027349 -0.013208 0.074898 0.046617 0.032321 0.039469 0.052833 -0.033254 -0.031700 0.020978 -0.045685 0.021289 0.045685 0.137987 -0.060602 0.113125 0.012509 0.060292 0.055941 -0.023619 -0.074898 -0.090748 -0.044131 0.056252 -0.077074 0.002078 -0.030767 0.100693 -0.070858 0.000517 -0.043820 -0.086397 -0.006526 -0.012509 -0.032943 0.023930 -0.052522 -0.144824 0.013131 -0.000362 -0.082668 -0.036672 -0.028126 -0.000709 -0.009052 0.003205 0.084533 0.095099 0.000651 -0.049725 0.059049 0.018569 0.096342 0.051279 -0.014451 0.051901 -0.123070 -0.014607 -0.051590 0.008158 -0.061846 0.025018 -0.019890 0.015539 0.083911 -0.000313 -0.022376 -0.068061 -0.090748 -0.077074 -0.003341 -0.073966 0.001680 -0.037294 -0.121827 0.057495 -0.035118 -0.008158 0.041023 -0.018025 0.033564 0.018802 -0.048171 -0.069304 -0.101936 -0.005361 -0.029369 0.068994 -0.115611 0.075209 0.016005 -0.103801 -0.097586 -0.018802 0.001428 -0.009013 -0.035585 0.024086 0.006993 -0.048171 -0.036361 0.005322 -0.003613 -0.039780 -0.006332 -0.036051 -0.021910 0.038071 -0.042888 0.013752 -0.105666 0.008430 0.038071 -0.022376 0.039314 -0.038848 0.028592 -0.071169 -0.049104 0.019424 0.091991 -0.071480 -0.029524 0.022532 0.015306 0.024707 0.027970 -0.024396 0.005361 0.044442 0.025640 -0.070237 -0.029835 0.004370 -0.025329 -0.058427 0.021133 -0.127421 0.047860 -0.027504 0.079560 -0.077074 -0.023775 0.055630 0.042266 -0.103801 -0.049414 -0.043820 0.011577 0.009867 -0.126177 -0.014529 0.069615 0.041023 -0.095099 0.030612 0.001428 0.108152 0.057805 0.000454 0.046307 -0.014684 0.071791 0.038382 0.054698 -0.026883 0.034341 -0.012431 -0.043820 -0.108774 0.000918 0.031078 0.012897 -0.048171 -0.046307 0.060292 -0.078317 -0.034963 -0.016549 -0.102558 -0.059670 -0.005011 0.033564 0.008158 0.024396 0.019890 0.054076 -0.072412 0.140473 -0.034186 0.060292 -0.036983 0.074277 0.077385 -0.018880 -0.019035 -0.025018 -0.002253 -0.071791 0.039780 -0.020822 -0.005050 0.009906 0.034652 0.002146 0.069304 0.093856 0.034963 0.139230 0.073655 -0.033409 -0.069926 -0.051901 -0.103801 -0.054076 -0.073966 0.030612 -0.031389 0.008236 0.049414 0.012897 -0.013597 -0.065264 -0.093235 0.036672 0.095721 0.000274 -0.011188 -0.068683 -0.017404 -0.017792 0.019424 -0.052522 -0.032321 0.014918 -0.058116
last 0.080515 0.040809 0.017096 -0.021645 0.072243 -0.036121 -0.136214 -0.052666 0.044394 0.131250 -0.045772 -0.110846 -0.021645 0.075552 -0.025368 -0.018199 0.064247 -0.021094 0.015303 0.021232 -0.029780 0.089890 -0.079412 -0.023438 0.063971 -0.011029 0.056250 0.050184 0.041912 0.095405 -0.032813 -0.000814 -0.022197 0.067555 0.045772 0.073346 -0.109743 -0.070588 0.015441 0.055974 0.065074 -0.098162 0.014269 0.038327 -0.001336 0.014821 0.012684 -0.057629 0.022059 0.014683 0.006514 -0.026333 0.066177 0.124633 -0.050735 0.040809 -0.035846 0.039155 0.027436 -0.023989 -0.060938 0.101471 -0.026471 -0.048530 0.026333 -0.024678 -0.023162 0.034191 0.046875 0.077206 -0.031710 -0.053493 0.073897 0.071691 0.010064 0.077206 0.027987 0.052666 -0.032261 0.082721 0.017302 -0.102574 -0.102574 0.014200 -0.092647 -0.051011 -0.020542 0.081066 -0.058180 0.019715 -0.000204 0.040809 -0.114155 -0.137317 -0.014476 -0.147795 -0.031296 -0.020956 -0.089339 -0.017440 0.049633 -0.010064 0.053769 -0.067555 -0.028677 -0.033640 -0.022610 -0.054320 -0.065074 -0.008375 0.040533 0.023024 0.034467 -0.052666 0.013649 -0.020818 0.052941 0.001861 0.109192 0.075000 -0.039982 0.017923 -0.053217 0.017923 0.016958 0.008238 0.057629 -0.047978 -0.006514 0.050735 -0.011995 -0.041085 -0.143383 -0.104780 -0.015786 -0.047151 0.055974 0.036397 -0.103125 0.113603 -0.016475 0.029780 0.086581 -0.025643 0.023438 0.014821 -0.071691 -0.008238 -0.088236 -0.002861 0.001827 0.016200 -0.068934 0.051563 0.018888 -0.000607 0.070588 -0.029642 -0.009582 0.001103 -0.029917 0.032537 0.044669 0.022886 0.016544 -0.044945 0.055974 -0.076103 0.011167 -0.004412 -0.039982 -0.025506 -0.075000 0.017371 -0.060662 -0.086581 0.042188 0.023024 0.083824 -0.002930 0.013925 -0.048805 -0.002430 0.161030 0.069486 -0.008513 -0.044945 0.052941 0.093750 0.042739 0.050735 -0.035156 0.047151 0.098714 -0.059283 -0.003843 0.109192 0.059559 -0.050184 -0.026884 -0.006273 -0.015579 0.037500 0.090442 0.092096 -0.064798 0.002964 -0.035570 0.042739 -0.017371 -0.047702 -0.001904 0.068934 0.011995 -0.039430 -0.054596 -0.005032 -0.032261 -0.062041 0.005894 -0.028952 0.124081 0.010478 0.015579 0.054320 -0.090442 0.004481 0.048530 0.040533 0.004102 -0.059283 -0.023438 0.042188 0.044669 -0.018336 0.005205 -0.024127 -0.063695 -0.005377 0.056526 -0.085478 0.063144 0.046599 -0.077206 -0.012822 0.057353 0.074449 0.022473 0.033502 0.010133 -0.069210 -0.038052 -0.029642 0.011788 -0.043291 0.048254 0.124633 0.040257 -0.005894 -0.083272 0.131250 0.074449 0.053769 0.038052 0.035294 0.022886 -0.018612 0.040533 0.025781 0.067004 0.064247 0.046324 0.105883 -0.030055 -0.000310 -0.097611 -0.076655 -0.010478 -0.004722 -0.152206 -0.026057 0.043566 0.000978 0.138420 0.002361 -0.058732 -0.074449 -0.065625 -0.042739 0.064522 -0.071691 -0.049357 -0.018199 0.128493 0.001336 -0.053769 -0.063695 -0.079964 0.019439 -0.086030
new 0.006434 0.016485 0.047576 -0.028379 -0.074564 -0.062600 -0.065661 -0.042568 -0.050915 0.124644 0.021145 0.053975 0.013355 -0.048133 -0.151353 -0.057314 0.002643 0.065661 0.047020 0.011755 -0.021006 -0.000183 -0.056479 0.009042 -0.036169 0.106838 0.051193 0.101273 0.068443 0.021145 -0.068165 0.023092 -0.018363 -0.021701 0.072338 -0.090144 -0.028935 -0.089031 0.049245 -0.066773 0.079572 -0.090701 -0.023232 0.069556 0.029909 -0.064548 0.045072 0.104055 -0.033665 -0.012590 0.051749 0.019893 -0.005843 -0.031022 0.076789 0.037838 -0.051193 -0.122974 0.089031 -0.008625 -0.062322 -0.057036 -0.046741 0.012103 0.099604 -0.052028 -0.019197 0.069556 -0.016972 0.096265 0.025318 0.039229 0.045072 0.050915 -0.067330 0.058705 0.074007 0.148015 -0.047298 0.114071 0.059540 -0.047020 -0.049524 0.013216 0.070112 -0.029492 -0.115184 0.097378 -0.038395 0.095709 -0.008973 -0.056201 -0.030465 -0.058705 0.010642 -0.006017 0.029074 -0.007269 0.010155 0.011755 0.033109 -0.004625 0.030187 0.005564 -0.084023 -0.060374 0.054810 -0.072338 -0.001617 -0.020171 0.011268 0.101830 -0.041733 -0.013494 0.150240 0.008973 -0.018919 -0.032969 0.070669 -0.000051 -0.022536 -0.079015 -0.056757 0.032274 0.063435 -0.003321 0.053419 0.021701 -0.009390 0.084023 -0.014815 0.010364 -0.079015 0.031022 0.013494 0.086249 0.067330 -0.048411 0.038951 -0.003460 -0.001817 -0.022536 -0.027961 0.020449 0.047020 -0.024344 0.021562 -0.012590 0.023092 -0.086806 -0.054253 -0.046463 -0.002713 0.005217 0.092926 -0.005982 -0.010851 -0.071225 0.012311 -0.022953 -0.000696 -0.036725 -0.089031 -0.052028 0.005217 -0.045072 0.102942 -0.025596 -0.016554 -0.084580 0.004938 -0.089588 -0.002765 -0.011964 0.171385 0.050080 -0.022675 -0.004052 -0.049245 0.049245 -0.116297 -0.028100 -0.035891 -0.074564 -0.002834 -0.023092 0.063435 0.034639 0.057870 -0.011059 -0.066217 0.048133 -0.007303 -0.037838 -0.005182 0.028240 -0.036169 -0.005704 -0.070390 -0.076233 0.003304 0.026292 0.051471 0.027405 -0.018224 0.010642 -0.004591 0.056757 0.036169 0.050358 -0.030187 0.060931 0.028240 0.009460 -0.036725 0.046463 0.144676 -0.027683 -0.126313 0.074564 -0.037004 -0.023371 0.005460 0.001895 0.043403 -0.124087 -0.120192 0.058983 -0.069834 -0.060374 -0.070390 0.055645 -0.021006 0.075120 0.020310 -0.042846 -0.008834 -0.037282 -0.000535 0.081241 0.021980 -0.099047 0.047298 -0.025457 0.003165 -0.047298 0.017598 0.077346 0.019893 -0.023788 0.013424 0.082910 -0.032969 0.037004 -0.005217 0.068165 0.034500 0.030465 0.002765 -0.015928 0.034361 0.013494 -0.108507 0.044794 0.104055 0.015720 -0.091814 -0.025318 -0.090701 -0.019336 0.113515 -0.013842 0.090701 -0.114071 0.031996 -0.013911 0.072894 -0.090701 0.062044 -0.049245 -0.076233 0.064548 -0.026014 0.091257 0.062878 0.065661 -0.123531 -0.087362 0.104612 -0.031857 -0.017806 0.025179 -0.056201 0.016276 -0.009738 0.062044 0.081797 0.046463 -0.026153 -0.026431
A -0.044241 0.089298 0.049542 -0.013150 -0.037513 -0.052600 -0.100715 -0.037105 0.046484 0.065648 0.048319 -0.074211 -0.059532 -0.006167 0.007849 0.037717 0.007289 -0.021713 -0.012640 0.001070 -0.024873 0.097860 0.006346 -0.034863 -0.022834 -0.046076 -0.080735 0.047503 0.083589 0.059124 0.080735 0.048930 0.005122 -0.060347 -0.004027 0.112539 -0.066871 0.104384 -0.011723 0.038533 -0.079104 0.025383 -0.046891 -0.005759 0.059939 0.033843 -0.023650 0.041998 0.040367 0.035678 -0.103569 0.081143 0.121510 -0.027727 -0.044445 0.045464 -0.001784 -0.048930 -0.030581 0.041591 -0.106015 -0.020388 -0.100715 -0.008053 -0.089298 -0.010245 0.071764 0.046280 0.034659 -0.094191 -0.000020 0.025586 0.043018 0.090521 -0.019776 0.069318 0.006065 0.010703 0.073395 0.033436 0.037513 -0.010449 -0.007849 0.071357 -0.004638 -0.059124 -0.097045 0.123141 0.061978 -0.035474 -0.110908 -0.047911 0.006142 -0.105200 -0.045872 0.051988 -0.019470 0.040979 -0.050153 0.005148 0.068095 -0.029766 0.063609 -0.030174 0.096637 0.002574 0.005912 0.009684 -0.131296 -0.141082 0.050969 -0.003823 0.021407 0.004664 0.055862 0.068095 -0.110093 0.091744 0.093375 0.097045 -0.055046 -0.034251 -0.018757 -0.061570 0.066056 0.176964 0.018451 -0.018757 0.064017 -0.026708 0.015495 -0.027319 -0.043426 0.066056 0.092967 -0.035678 -0.045464 -0.059939 -0.070949 0.092152 0.070949 -0.027727 -0.044241 0.066464 -0.046891 -0.075026 -0.001886 -0.074211 -0.023752 -0.040164 0.012029 -0.143529 0.045464 -0.034863 0.079104 -0.019980 0.150868 -0.000475 0.010754 -0.044037 0.010398 -0.014271 0.081550 0.044853 0.021203 -0.016310 0.069726 0.003874 -0.124772 -0.017228 -0.091336 -0.015291 -0.083589 -0.091744 0.008410 0.076657 0.040775 0.023752 -0.037921 -0.043426 0.029358 -0.018553 0.000698 0.127219 -0.021509 0.085628 -0.023140 -0.096637 0.050969 -0.037921 -0.004230 -0.053415 -0.075842 -0.024975 -0.095822 -0.018655 -0.038533 -0.067687 -0.018247 -0.074211 -0.003466 -0.008512 -0.088482 0.010754 -0.122325 -0.040367 0.006014 0.049950 0.055454 -0.027115 -0.001211 0.030174 0.047911 0.037513 -0.016208 0.071764 0.014067 0.039144 0.007543 0.077065 0.050765 -0.028339 0.028543 0.002001 0.035067 -0.030989 0.038329 0.000060 0.039960 0.039960 -0.042202 -0.093783 -0.005173 0.034455 -0.019164 -0.058308 0.028543 0.099491 -0.004587 0.018553 0.034863 0.000500 0.054639 0.007849 -0.000306 -0.045668 0.065240 -0.004179 0.114170 -0.028746 0.050561 0.067687 0.003020 0.094598 -0.036086 0.099491 0.045668 -0.060755 -0.007441 0.003542 -0.034047 -0.045464 -0.029970 -0.050969 -0.020388 0.053415 0.006524 0.072172 -0.040979 -0.036698 -0.041387 0.045260 -0.013965 -0.091744 0.056677 -0.014781 0.032212 -0.040164 -0.015189 -0.044037 -0.034047 -0.011978 -0.009684 0.185935 0.049746 -0.112539 -0.054639 -0.037309 -0.028339 -0.001924 0.016310 -0.016514 0.009022 0.004740 0.035474 -0.123141 0.015495 0.044649 0.009888 -0.014781
game 0.044968 0.020666 0.016839 0.001758 0.107157 0.028129 0.068121 -0.077689 0.008132 0.046498 0.013108 -0.041523 0.000131 -0.070417 -0.005143 -0.049751 0.058171 0.055492 0.060850 -0.040375 0.085343 0.046307 0.037888 -0.059319 -0.008132 -0.011625 -0.027937 -0.006410 0.067738 -0.003038 -0.041140 0.044968 0.057405 -0.076158 -0.022675 0.081516 0.066973 -0.013203 0.036739 0.092231 0.102564 0.006123 0.114811 0.065825 -0.019901 -0.062380 0.041523 -0.040758 0.032530 0.107922 0.015786 0.102564 0.003229 -0.005477 -0.000733 -0.083429 0.087256 -0.031956 0.057405 -0.070035 -0.072713 0.050899 -0.015978 -0.026598 -0.061232 0.071183 -0.019518 -0.054344 0.110218 0.075392 0.018944 -0.024493 -0.036739 -0.077689 -0.041523 -0.073479 0.045733 -0.005908 0.052430 -0.051282 -0.048603 -0.010476 0.027555 0.030808 0.063911 -0.062763 -0.129353 0.075392 0.086873 0.038462 -0.020953 0.058936 -0.030616 -0.015595 0.031573 -0.108687 -0.022675 0.000526 -0.039610 0.063911 -0.015595 0.041140 -0.002511 0.011385 -0.017700 -0.024302 -0.006506 0.036548 0.021814 -0.001106 0.103330 -0.014925 -0.103330 -0.036165 0.133180 0.054726 -0.027363 0.043245 -0.003373 -0.077306 -0.055109 -0.068886 -0.000152 0.055875 -0.047646 -0.101033 -0.089170 -0.053578 -0.071948 0.007463 -0.027555 -0.118638 -0.048220 -0.054344 -0.014734 -0.039610 -0.008419 0.143131 -0.169154 -0.022484 -0.021431 0.011768 0.057405 0.012246 -0.043054 0.176043 0.097972 -0.046307 -0.108687 -0.013873 0.023153 0.050517 -0.094527 0.023058 -0.078071 -0.019039 0.016648 -0.140834 -0.080367 -0.039036 0.017796 0.020379 0.104095 -0.010668 -0.063911 -0.035783 0.020762 -0.008515 -0.004066 0.048603 -0.092614 -0.050517 0.021814 -0.038653 0.015404 0.003779 0.035974 -0.021049 -0.071565 0.000598 0.060850 -0.023058 0.100268 -0.033295 0.013108 0.081133 0.014351 -0.003923 -0.008467 -0.057023 0.044011 -0.001555 0.020570 -0.039992 -0.067738 0.072713 -0.008419 0.035591 -0.070417 -0.008324 -0.034252 0.014638 0.027363 0.053196 0.086491 -0.028129 0.039992 -0.014160 -0.006219 -0.034635 0.016648 0.109453 -0.045350 0.081516 -0.078071 0.004760 0.008563 -0.072331 -0.077689 -0.002189 0.030042 -0.048603 0.070417 -0.082281 0.027363 0.042097 0.007176 0.097206 0.009998 -0.010859 0.024397 0.078454 -0.044776 -0.081898 0.062380 0.059702 -0.004592 -0.030616 0.068504 0.026024 0.023823 -0.083429 0.103330 -0.247991 -0.057023 0.049369 -0.055109 0.005166 -0.018848 -0.012916 0.000951 0.030808 0.035209 -0.007750 -0.067356 -0.073862 0.018178 -0.020283 -0.007224 0.000024 -0.055109 0.061998 0.065825 -0.010333 -0.081516 0.075392 -0.010572 -0.009807 -0.101799 -0.011672 -0.018848 0.040758 -0.030042 -0.090700 0.083046 -0.007319 0.013108 -0.041332 -0.085343 -0.027555 0.023249 0.026215 0.049751 -0.038270 0.030425 -0.086873 0.003707 0.053961 -0.026598 0.005382 -0.083429 0.016935 -0.054726 -0.004545 0.089552 0.066973 -0.004090 -0.036931 -0.067738 -0.020666
being -0.079747 0.012582 0.027839 0.016168 -0.034525 0.045223 -0.047168 -0.009847 0.044250 0.154632 0.010090 -0.141989 0.001178 -0.035497 0.003829 -0.059811 -0.057136 0.064187 -0.069536 0.053003 0.002203 -0.028325 0.070022 -0.056164 0.049599 0.016411 -0.057865 0.090445 0.063214 -0.049113 0.024313 0.033552 -0.024921 0.093849 0.137127 -0.019815 -0.014527 -0.077316 0.060054 -0.093849 0.090445 0.050815 -0.007841 0.019451 0.011731 -0.040603 0.013311 0.112327 0.003419 -0.061756 -0.043278 0.080234 -0.006868 0.044493 0.032093 0.047411 0.043278 0.018478 0.017384 0.061512 0.033309 0.126429 -0.025894 -0.111841 -0.017262 -0.007963 -0.041089 0.012096 0.027352 -0.078775 0.012217 0.033066 -0.006625 0.032823 0.025164 0.046438 0.061026 0.044979 0.042062 0.097253 0.050572 -0.009300 0.022247 -0.009725 0.022611 -0.026258 -0.085096 0.125456 0.005896 -0.022490 -0.070022 0.063214 -0.059567 -0.035497 0.060783 0.110868 0.055920 -0.036470 0.050328 0.018478 -0.008510 -0.106978 0.118162 0.020788 -0.049113 0.085583 -0.054705 -0.017870 0.024799 -0.029541 -0.060540 0.002994 -0.055677 -0.044979 -0.072453 0.002203 0.055677 -0.066132 0.127401 0.089473 -0.071481 0.033309 -0.101629 0.050328 -0.038172 0.030392 0.011913 0.023462 0.060054 -0.047168 0.040360 -0.011670 -0.065159 -0.104547 -0.089959 -0.045223 0.017627 0.027109 -0.080720 0.034282 0.001770 -0.046438 0.029176 0.007841 -0.026501 0.012704 -0.052517 -0.010637 -0.107951 0.010151 -0.076830 -0.010333 -0.012947 0.024313 0.043034 -0.019937 -0.057622 -0.099684 0.044736 0.010819 0.003039 0.114272 0.044493 0.053732 -0.074398 -0.040603 -0.036713 -0.007051 -0.033552 -0.017019 -0.123025 -0.088500 -0.065159 -0.060783 -0.031607 -0.062728 -0.015925 -0.133237 -0.014223 0.040117 0.158522 -0.034282 0.043521 0.012582 0.028690 -0.025286 -0.096767 0.016290 0.090445 0.028082 -0.021396 0.068563 0.002310 -0.057136 0.004528 -0.024313 -0.151715 -0.045709 0.027231 0.059567 0.015925 0.006078 0.020423 -0.026015 0.019329 0.030027 -0.026380 -0.004194 0.036470 -0.043764 -0.070995 -0.051058 0.087041 0.071967 -0.088500 0.049113 0.013859 -0.034768 -0.038415 -0.029662 -0.022611 -0.051787 0.052517 -0.065159 0.065159 0.036956 0.069536 0.035254 0.106006 -0.035011 0.030999 -0.045466 -0.010151 0.004103 0.140044 -0.069050 -0.072453 0.022125 0.046681 -0.069536 -0.024678 0.034768 0.065646 -0.073426 0.012096 0.001049 -0.028203 -0.031850 -0.070022 0.093849 0.022490 -0.016047 -0.006078 -0.004407 -0.011488 0.007963 0.016411 0.027960 0.017506 -0.034282 0.050572 -0.048383 -0.051787 0.076830 0.077802 0.081206 0.047168 0.072453 0.033552 0.088986 0.040117 0.030756 0.068077 0.074398 -0.041576 -0.014710 -0.019451 -0.022003 -0.069050 -0.027231 0.017870 -0.075857 -0.006048 0.056164 -0.035984 -0.025164 -0.040117 -0.038901 0.100171 0.049356 -0.184781 -0.026745 -0.076830 0.045952 0.083638 0.070508 -0.077316 -0.021760 -0.008692 -0.068563
% 0.001144 -0.070302 -0.011870 0.025765 -0.080240 -0.036991 -0.033127 -0.058892 0.159743 0.002461 -0.113366 0.043985 -0.075087 0.035887 -0.079872 -0.056683 0.047113 0.001886 0.032022 0.018404 -0.019600 -0.055579 -0.004670 -0.076559 0.013987 0.054475 -0.119255 0.119255 -0.027053 -0.016103 0.023189 -0.120728 0.023925 0.021992 -0.032206 -0.004670 -0.011502 -0.027053 -0.017852 0.078031 0.052634 -0.049322 0.041408 0.035519 -0.061468 -0.018128 -0.020796 0.053370 -0.090914 -0.074351 0.061468 0.029998 0.027421 0.032574 -0.017299 -0.003290 -0.032390 0.006073 0.023741 -0.035519 0.012791 0.057051 -0.035335 -0.064781 0.096435 -0.092754 -0.084657 -0.039568 0.128825 -0.011180 -0.048217 -0.080608 0.071406 0.045457 -0.026685 -0.099380 0.111158 -0.072510 -0.012514 0.058155 -0.052634 -0.096435 -0.038095 0.048217 -0.090178 0.031286 -0.019968 -0.014447 0.069198 -0.038832 0.044721 0.059260 -0.040488 0.008650 0.050794 -0.046193 -0.016379 -0.042512 0.035887 -0.031102 0.096435 -0.167841 -0.118519 -0.034231 0.075087 -0.058892 -0.027421 -0.024477 0.000840 -0.057787 -0.009754 -0.028158 0.059628 0.035151 -0.058523 0.136923 0.036439 -0.007453 0.063308 -0.049322 0.035703 0.015919 -0.019784 0.025949 0.029630 0.111894 0.033127 -0.044353 0.043985 0.004647 0.011548 0.012883 0.032942 -0.043801 0.007361 0.051898 0.070302 0.005935 -0.080240 0.052266 0.016011 -0.077295 0.031470 0.057419 0.024109 -0.130298 0.113366 -0.038832 0.066989 -0.053370 0.076191 -0.009064 -0.008236 -0.037175 -0.121464 -0.037727 -0.070302 0.024661 -0.033127 -0.031838 0.002105 0.096435 0.014907 -0.006855 0.025949 0.091282 -0.039384 0.016747 -0.043248 -0.108213 -0.063308 0.031470 0.012791 0.042328 -0.051162 0.028710 0.031470 -0.056315 -0.012514 -0.097907 -0.073614 -0.099380 0.024661 -0.048954 0.031286 0.006487 -0.039752 0.108949 0.079504 -0.077663 -0.019140 -0.064413 -0.029630 -0.009248 0.061468 0.034047 0.023557 -0.021532 0.017115 -0.091282 -0.059260 0.079504 0.005314 -0.064413 -0.013435 -0.015919 -0.058892 -0.044353 0.009800 -0.070670 0.054107 0.001656 -0.075087 0.023097 -0.120728 -0.023373 0.026685 -0.082816 0.138395 0.036991 -0.078031 0.128089 -0.016011 0.026133 0.018588 -0.056315 -0.004785 -0.113366 0.032574 -0.048586 -0.077663 0.029814 0.094963 0.041224 -0.036807 0.033863 0.012698 0.028342 0.010766 0.020336 -0.034415 -0.002749 0.087233 -0.036623 0.050426 -0.002392 -0.050058 0.104533 -0.117047 -0.009156 0.071406 -0.058523 0.019140 0.024109 0.112630 -0.032390 -0.001070 0.013987 0.058155 -0.044537 0.140604 -0.059260 -0.010260 -0.031654 0.008328 -0.010858 -0.120728 0.046745 0.030550 0.024109 -0.013527 0.032206 -0.014447 -0.116311 0.067357 0.083552 -0.047481 0.079872 0.033495 0.005061 -0.032390 0.004118 -0.014723 0.006027 -0.037911 -0.095699 0.022913 -0.017207 -0.014815 -0.062204 -0.010030 0.033679 -0.046929 -0.008328 0.007499 -0.039936 -0.030182 -0.039200 0.073983 -0.014447
1 0.024247 -0.044531 0.031009 0.054556 -0.031009 -0.052458 0.044298 -0.038935 0.062483 0.060152 -0.032174 -0.017020 0.081135 -0.030775 -0.085798 0.007111 0.022149 -0.000485 0.032874 0.045697 -0.101652 -0.042433 -0.010725 -0.032407 -0.009268 0.032407 -0.062950 -0.021216 0.044764 0.075540 -0.099320 -0.082534 -0.029493 -0.183720 -0.103983 0.033573 -0.067146 0.105849 0.034506 0.070877 0.019235 -0.058986 0.004750 0.042666 0.005858 0.034273 0.070410 -0.018302 -0.015737 0.026112 -0.104450 0.053391 0.041267 -0.036604 -0.075540 0.025996 -0.102118 -0.079270 -0.109113 0.014863 -0.069944 0.011191 -0.021566 -0.104916 -0.005654 0.005741 -0.017603 0.050826 0.139888 0.044298 -0.003905 -0.057354 0.022965 -0.029493 0.070877 0.028327 0.024247 -0.054090 0.010550 -0.002856 -0.069478 -0.075073 0.076006 0.065747 -0.028094 0.024947 -0.046396 0.094658 0.102585 0.019817 -0.047562 0.076938 0.037770 -0.072275 0.001909 0.044764 -0.036604 0.011249 0.031009 0.111444 0.048261 0.018652 -0.016670 -0.025413 -0.036371 0.001836 0.003643 -0.113309 -0.030076 -0.056421 0.002958 -0.047329 -0.055256 -0.112377 0.019468 0.032874 0.114242 0.002550 0.010375 0.042433 -0.038935 0.022032 0.052924 -0.009909 0.108646 -0.018535 0.087197 0.084865 0.044298 0.056188 0.039402 0.047562 -0.015155 -0.016670 -0.046629 -0.048261 -0.045697 -0.000736 0.015155 0.141753 0.021566 0.088596 0.086264 -0.023315 -0.048261 -0.023548 0.065281 0.069478 -0.064815 -0.062950 0.086731 -0.048961 -0.061084 0.014105 -0.086264 0.055722 0.011716 0.063416 -0.051292 0.016437 -0.019118 -0.018419 0.089528 0.004867 -0.052225 0.031009 0.039868 0.103517 -0.045464 -0.000342 -0.016903 -0.062017 0.001858 -0.050826 -0.108646 -0.019934 0.034039 -0.033340 -0.019235 -0.017719 -0.025646 -0.036371 0.002623 0.163203 -0.010433 -0.054090 0.038702 0.071809 0.152012 -0.045697 0.012415 -0.051525 0.057121 -0.110045 -0.028560 0.015271 -0.055023 0.091393 -0.021683 -0.148281 -0.121236 0.044298 0.044531 -0.009617 -0.025413 -0.008860 -0.053857 0.043598 -0.004605 -0.016087 0.008452 0.022848 0.029376 -0.011657 -0.073674 0.103983 0.076472 -0.058520 0.035671 -0.089528 -0.056421 -0.007927 0.015271 0.035905 -0.010433 -0.026812 -0.122169 0.020750 -0.004138 -0.066214 -0.003206 -0.016320 -0.010783 0.062950 -0.069011 0.016320 -0.037537 -0.135225 -0.054556 -0.072275 -0.070410 0.092326 0.088596 -0.044531 0.003337 -0.050826 0.025413 -0.018535 0.078337 -0.082068 0.035205 0.038469 -0.101186 -0.011482 0.046629 0.046629 -0.014339 -0.086731 0.030076 -0.007985 0.054090 -0.046629 -0.036837 0.006820 0.008277 -0.006004 0.033806 0.028444 -0.044298 0.002244 0.045464 0.020051 0.012182 -0.068079 0.026695 0.010084 -0.124034 -0.031242 0.075540 0.076472 0.054090 0.062017 -0.009792 -0.003876 0.088596 -0.083000 -0.024014 0.057121 0.042899 -0.021799 0.014047 0.008160 -0.077405 0.069011 -0.010142 0.038003 -0.101652 -0.080669 -0.019817 0.003905
school 0.037047 0.011441 0.014958 0.088755 0.039623 -0.026745 0.063396 -0.019019 -0.001894 -0.036849 0.101038 0.018524 0.026943 -0.040019 -0.042991 0.043189 -0.081226 0.005721 0.055472 -0.035660 0.083207 0.069340 0.004730 0.069736 0.001969 -0.141849 0.000922 0.074887 0.048538 -0.010203 0.041406 -0.043387 0.016245 0.003046 -0.066170 -0.060623 0.092717 -0.020406 0.018821 0.050717 0.005300 0.051906 0.044774 -0.020505 0.013967 0.058641 0.069736 -0.011292 -0.044972 0.093113 -0.047547 -0.049528 -0.001443 -0.046160 0.085981 -0.084792 -0.042396 0.017830 -0.005002 -0.064585 -0.035858 -0.016245 0.043189 -0.020604 0.031500 0.059434 -0.070132 0.084000 0.008965 0.016443 -0.074491 0.049132 0.035264 0.014958 -0.045170 0.144226 0.116490 0.001294 0.070132 0.064189 0.020208 -0.067755 -0.061019 0.084396 0.022387 0.016047 0.015057 0.096283 0.067358 -0.011491 -0.007380 -0.076868 -0.005547 -0.062208 -0.007231 0.038236 0.064585 0.025755 -0.025358 0.029123 -0.019415 -0.005423 -0.056264 0.024863 -0.088358 -0.033877 0.005250 0.022585 -0.008816 -0.084396 -0.093509 0.068943 -0.013670 -0.018325 0.066962 -0.000102 0.027141 -0.020208 -0.057453 -0.065774 -0.045566 -0.006166 0.010054 -0.008816 -0.024170 -0.018325 -0.033481 -0.055075 0.001244 0.033283 0.036849 -0.144226 -0.078849 -0.041406 -0.053887 -0.012134 0.011045 -0.000004 -0.011292 0.028528 -0.144226 -0.144226 0.052698 0.001857 -0.010599 0.087170 -0.039226 -0.038632 -0.009014 0.000193 0.164038 -0.072113 -0.036651 0.060623 -0.083604 -0.052302 0.103811 -0.097075 0.043585 -0.029519 -0.092321 0.046160 0.082811 0.079245 -0.031500 0.004680 -0.012481 -0.085189 0.024863 0.021396 -0.088358 0.015948 0.006439 -0.106981 0.006835 0.026547 0.006983 0.049726 0.004235 0.100245 -0.001288 0.023575 0.006934 0.019811 0.034472 0.005200 -0.034868 -0.025557 0.091528 0.037443 0.029519 -0.036651 -0.008816 0.072509 -0.108566 -0.033283 0.046755 -0.076075 -0.002984 -0.007925 -0.042991 -0.008915 0.086774 -0.114906 -0.027340 -0.118868 0.007083 -0.103019 -0.020307 -0.000579 0.036255 -0.061415 0.072113 -0.145019 -0.132340 0.131547 -0.041208 0.024170 -0.055075 -0.058245 -0.050519 -0.037443 0.010153 0.059434 0.049924 0.011094 -0.104604 0.045962 0.031104 -0.014958 0.084396 0.032094 0.020208 0.065377 0.008618 0.034075 0.003690 -0.078453 0.006587 -0.011986 0.028528 -0.021495 0.093509 -0.035462 -0.110943 -0.047151 -0.066566 -0.026745 0.006637 -0.002489 0.012976 0.039623 0.056264 0.057849 -0.035462 -0.108566 0.046953 -0.010550 0.007825 0.102226 0.018623 0.056660 -0.100245 -0.037443 0.038830 -0.022783 0.014759 0.026943 -0.018920 0.024269 0.041208 -0.019019 0.036849 0.084792 -0.031698 -0.102226 0.124415 -0.127585 -0.024665 -0.126000 -0.047547 -0.020505 -0.055472 0.102226 -0.077660 -0.000198 -0.037840 0.079641 0.061415 0.121245 -0.043783 -0.009708 -0.059830 -0.027141 0.042594 -0.023278 -0.042991 -0.005077 0.036849 0.048736
another 0.119021 -0.012037 0.056221 0.063996 -0.043960 -0.007588 -0.030802 -0.042166 0.000320 0.079547 0.001023 -0.078350 -0.022877 0.019887 -0.042166 0.022578 -0.007215 -0.058015 0.058613 -0.028559 0.023924 0.081939 -0.013009 -0.039773 0.039175 -0.013980 -0.038876 0.063099 -0.000289 0.117825 -0.040670 0.055324 0.034540 -0.018690 -0.123208 -0.007626 0.007962 0.019139 0.003233 -0.052632 0.037830 -0.080743 0.107059 -0.021083 0.039773 0.055324 0.119619 0.113638 0.062800 -0.047250 0.041269 0.077154 0.057716 0.034390 -0.051735 0.001626 0.019588 -0.003140 0.058314 -0.046352 -0.025569 0.041867 -0.003290 -0.009457 -0.069080 0.030353 0.052034 -0.033194 -0.053530 0.125002 -0.033194 0.049343 0.106461 0.005121 -0.024970 -0.002224 -0.037979 0.075958 0.063697 0.095097 0.096293 -0.048147 0.044857 0.026167 0.025569 -0.032596 0.016672 0.144739 0.001079 0.003065 0.031699 0.006953 -0.046950 -0.108853 -0.055324 -0.066389 0.084929 0.084929 -0.128590 0.036633 -0.048147 -0.039773 0.021382 -0.056819 -0.023625 -0.007738 0.059211 -0.117825 0.015177 -0.053530 -0.055623 -0.000120 0.063996 0.013382 0.011738 0.072070 0.045455 0.001691 0.155505 0.072669 -0.061305 -0.093901 -0.086126 0.006317 -0.024372 0.065790 0.047250 -0.013831 0.015924 0.111246 -0.060408 0.010840 -0.090312 0.009794 0.025718 -0.066389 0.001430 -0.084331 -0.077752 0.154309 0.074164 -0.120815 0.043362 0.010168 0.069080 -0.016747 -0.104667 -0.022429 0.021980 -0.017943 0.009719 -0.067585 -0.088518 0.049044 0.004635 0.059211 0.018541 -0.056819 -0.026167 -0.098686 -0.122011 0.012859 0.005046 -0.006243 -0.011065 -0.031550 0.178232 -0.070575 -0.054128 0.067884 -0.016223 -0.113638 0.028858 -0.092107 0.052632 -0.034839 0.076257 -0.018242 -0.013980 0.037381 0.035736 -0.034241 -0.086126 0.027064 -0.075659 0.069678 -0.009009 0.062202 0.122011 -0.013083 0.009457 0.038577 0.011812 0.061006 0.001617 0.001561 -0.056520 0.031849 -0.120217 0.000944 0.013980 0.026765 0.009383 0.025868 -0.006803 0.054128 -0.016074 0.020634 0.150720 -0.022429 -0.013980 0.044558 -0.038876 0.066090 -0.061903 -0.001392 0.046352 -0.051137 -0.057118 0.040970 -0.023774 0.058613 -0.058912 -0.034091 0.099284 -0.010616 0.051436 0.071771 0.003308 0.012261 -0.154309 -0.004430 0.046651 0.041867 0.018616 -0.101676 -0.001346 0.019887 -0.008598 -0.000729 -0.009121 -0.026466 -0.001738 -0.069080 -0.028110 -0.011140 0.072968 -0.017569 0.078949 -0.050838 -0.034989 -0.023475 0.039175 0.013158 0.003869 0.009869 0.135169 0.052931 -0.040072 -0.030951 -0.006056 0.033493 -0.141749 0.008635 0.042166 0.072070 0.027512 0.043063 -0.062202 0.068183 0.077752 -0.017943 -0.001336 -0.070575 0.015999 -0.007700 -0.077752 -0.110648 0.024671 -0.021232 -0.037530 0.015476 -0.020186 0.084929 -0.043063 0.008224 -0.057716 -0.033792 0.000258 -0.020186 0.011812 0.047848 -0.003196 0.031849 0.013681 0.004000 -0.026765 -0.045455 0.040371 -0.046651
2 0.051246 -0.050544 0.025506 0.033462 -0.035100 0.000121 0.049608 -0.040014 0.038610 0.054990 -0.036504 0.005996 0.045396 -0.049608 -0.042354 -0.007488 0.032058 0.008483 -0.015795 -0.001916 -0.068796 -0.090324 0.020943 -0.014976 0.012929 0.017550 -0.075816 -0.005879 0.023868 0.013748 -0.100152 -0.071136 -0.042588 -0.200305 -0.148825 0.025623 -0.051714 0.102492 -0.005528 0.062712 0.047970 -0.077688 -0.010179 0.060372 0.002106 0.049608 0.054288 -0.036504 -0.017316 0.005411 -0.106704 0.080028 0.060372 -0.039312 -0.063180 0.013806 -0.074880 -0.056394 -0.047034 -0.010062 -0.090324 0.014625 -0.032526 -0.092664 -0.033930 -0.002706 -0.042822 0.047502 0.125424 0.043524 -0.009068 -0.002355 0.012812 -0.025974 0.058968 0.032994 0.005704 -0.068328 0.021528 -0.010530 -0.068796 -0.041418 0.049140 0.032994 -0.026676 0.010530 -0.058968 0.089856 0.040248 0.008541 -0.050310 0.085176 0.035100 -0.012578 0.017199 0.006874 -0.036504 0.028197 0.027846 0.116532 0.039312 -0.021996 0.015093 -0.068796 -0.025155 -0.037908 0.011349 -0.112320 -0.025857 -0.065052 -0.027261 -0.040950 -0.048438 -0.093132 -0.008015 0.038376 0.085644 0.020475 0.009828 0.043758 -0.008892 0.021411 0.049842 -0.038844 0.114660 -0.040716 0.065520 0.085176 0.031122 0.067392 0.055224 0.033462 -0.007605 -0.017199 -0.092196 -0.006084 -0.016029 0.000176 0.018954 0.126360 0.032058 0.092196 0.100152 -0.008190 -0.041418 -0.040014 0.077220 0.078156 -0.039780 -0.073944 0.096876 -0.044226 -0.061776 0.038610 -0.086580 0.059202 0.013221 0.064584 -0.044460 0.062244 -0.012110 -0.024453 0.117468 0.048906 -0.026910 0.059202 0.074412 0.113724 -0.014801 0.006055 -0.032058 -0.067392 -0.010589 -0.049608 -0.062244 -0.026091 0.019773 -0.081432 -0.004446 0.017901 -0.047970 -0.048204 -0.011583 0.176905 0.015327 -0.036972 0.069264 0.036972 0.130104 -0.098748 0.044226 -0.089388 0.076752 -0.140400 -0.017901 0.045630 -0.023049 0.091728 -0.027729 -0.131040 -0.140400 0.020475 0.016263 -0.016614 0.004475 -0.016146 -0.045162 0.045864 -0.033930 -0.019071 0.049608 0.029250 0.035100 -0.022230 -0.080028 0.066924 0.051012 -0.059436 0.009945 -0.070200 -0.048906 -0.013748 0.034398 0.024921 0.009828 -0.027846 -0.158185 0.038376 -0.018837 -0.052182 0.008366 0.006728 0.005645 0.053352 -0.066456 0.013923 0.005792 -0.114192 -0.008073 -0.042120 -0.100152 0.134784 0.095472 -0.072072 0.011642 -0.039546 0.039780 -0.009828 0.087984 -0.070200 0.025506 0.057798 -0.101088 -0.001777 0.051246 0.023634 0.007371 -0.116064 0.025038 -0.053352 0.017667 -0.031122 -0.032994 0.011817 0.019539 0.024336 0.027144 0.022464 -0.070200 0.020007 0.054054 -0.006347 0.037206 -0.087048 0.041418 0.003159 -0.111852 -0.008541 0.070668 0.050778 0.057330 0.051012 -0.021411 0.036738 0.095472 -0.065520 0.007722 0.056160 -0.023049 0.034632 -0.005090 -0.013806 -0.077220 0.064116 -0.020709 0.021177 -0.102492 -0.070668 -0.029952 0.036738
Tuesday 0.025811 0.033432 0.057522 -0.139626 -0.018191 0.028146 0.089970 -0.055801 0.041298 0.042527 -0.030482 -0.040560 0.109636 -0.007129 -0.062930 -0.059980 -0.004087 0.010447 0.067846 0.082595 0.015671 0.035152 -0.050885 -0.047689 -0.021263 -0.030727 0.079646 0.021755 0.015732 0.075713 0.030605 -0.038348 -0.042527 -0.106686 -0.000937 0.071779 -0.009034 0.025442 -0.066371 -0.020280 -0.008358 -0.079646 0.116027 -0.003088 0.011431 0.072271 0.050147 0.045722 -0.003687 0.081121 0.024459 0.067846 0.014872 0.071779 -0.059488 0.010816 -0.047197 -0.097345 0.028269 -0.038102 -0.107177 -0.033186 -0.100295 0.001337 0.041544 0.023230 0.036136 0.079646 0.070796 0.064896 0.045968 0.003718 0.008850 0.097345 0.071779 0.078171 0.036627 0.024213 0.091937 0.026057 0.025688 -0.069321 0.029130 0.018314 0.085545 -0.064896 -0.103736 -0.054326 -0.040314 -0.008419 0.028515 0.034415 0.010632 -0.025319 -0.071288 -0.065880 -0.031342 0.098820 -0.088987 -0.083579 0.107669 -0.067355 0.015548 -0.008665 -0.044985 -0.054326 0.080137 -0.058013 0.017207 -0.114060 0.087020 0.024951 0.032202 -0.141592 -0.009894 -0.027286 0.056293 0.021263 0.065388 0.064896 -0.031465 -0.037365 -0.040069 -0.007866 0.027040 -0.035644 0.009403 -0.010017 0.032940 0.004056 0.025197 -0.037119 -0.007160 -0.047689 -0.076696 -0.022861 0.014626 0.008358 -0.062192 0.067846 -0.013643 -0.009095 0.065880 -0.061209 -0.106194 -0.003764 -0.026549 -0.139626 -0.004148 -0.011308 -0.050393 0.002550 -0.017330 -0.066863 0.087020 -0.077187 0.082595 -0.049164 -0.008419 0.090953 0.012906 -0.043264 0.037610 0.080137 0.047935 0.023967 0.029130 0.013827 0.046460 -0.049656 0.068830 -0.011000 -0.045722 -0.001644 -0.027163 -0.170107 0.096361 -0.006176 -0.029130 -0.053343 -0.124876 0.004240 -0.047935 -0.009956 0.065388 0.012660 0.010509 -0.015241 0.121435 -0.039823 0.090953 0.027778 -0.010202 0.048427 -0.146509 -0.005807 0.004732 -0.026303 -0.013704 -0.044985 0.005101 -0.075713 0.044248 -0.007682 0.084562 -0.022861 0.063913 0.092428 0.005224 -0.092428 -0.057522 -0.100295 0.010079 -0.020403 -0.078662 0.003334 -0.004056 0.039085 -0.115044 -0.008235 0.044248 0.087020 0.003795 -0.052360 -0.004978 -0.127826 -0.046706 0.096361 0.006822 0.054572 0.075713 0.005224 -0.073254 0.056293 0.035152 -0.058013 -0.001513 -0.060472 0.018314 -0.026549 0.030482 0.029375 -0.068338 -0.016101 -0.032694 0.006361 0.089478 0.028761 0.098328 0.005347 -0.088987 0.037365 -0.037610 -0.011861 0.046214 0.037856 0.068338 -0.004916 0.084562 -0.007989 0.051868 -0.023476 0.070796 0.078662 0.047689 0.064896 0.029621 0.072271 0.010570 0.030850 -0.072271 0.058259 -0.001390 -0.025688 0.063913 -0.026794 -0.023230 -0.001513 -0.025811 -0.033923 -0.023845 0.025197 -0.039823 0.143559 0.022124 -0.159291 -0.027163 0.050147 0.042773 0.048181 0.037365 -0.097345 -0.001544 -0.005224 0.066371 -0.088495 -0.084070 -0.016593 0.059488 -0.076204
city -0.004359 0.024831 0.079459 -0.017329 -0.012891 -0.034235 0.031065 0.005759 -0.062130 0.004887 -0.014159 0.033601 0.066779 -0.027684 -0.047126 -0.008242 -0.030008 -0.023140 -0.038039 0.003513 -0.073542 -0.035292 -0.001162 -0.045858 0.025676 -0.068470 -0.013314 0.071429 -0.085376 -0.006551 0.043322 -0.041843 -0.031276 0.100592 -0.017857 -0.078614 0.009668 0.020287 0.046703 0.010778 -0.051353 0.051775 0.080304 0.023563 -0.088335 0.056213 -0.017751 -0.032967 -0.104396 0.113271 0.022718 0.014687 -0.015533 -0.062976 -0.055368 -0.020076 -0.084954 0.036137 -0.052198 0.032756 -0.013208 0.019231 -0.092139 0.020710 -0.024620 0.007185 -0.051141 0.096365 0.030642 -0.039307 -0.051564 0.087490 0.024408 -0.038462 -0.004940 0.010197 0.029374 0.005045 -0.045435 -0.021450 -0.017646 -0.056636 0.012363 0.014793 -0.064666 0.064244 -0.072274 0.022718 0.028741 0.066357 -0.012944 -0.082418 -0.087490 -0.021767 -0.126796 0.097211 -0.033601 -0.005785 0.003381 0.024303 -0.065511 0.098901 0.025254 0.071851 0.014265 -0.057481 0.013314 -0.058326 -0.030431 -0.162299 -0.048394 0.024303 0.099324 -0.012574 0.002364 -0.088757 0.035503 -0.073542 -0.039730 0.006208 -0.116653 -0.016378 -0.139476 -0.042054 0.036771 0.042477 -0.018808 -0.082418 0.050719 -0.193576 0.050507 -0.104396 0.032544 -0.068470 0.039096 -0.021238 -0.014793 -0.088757 0.044801 0.061708 -0.014053 -0.028741 -0.017857 0.045858 0.049239 0.043322 -0.071006 0.053466 -0.098901 -0.042477 0.109890 0.027473 -0.026522 -0.011570 0.058749 0.024514 0.114962 -0.032967 0.123415 0.006023 0.016589 0.027261 0.072274 0.004993 -0.039730 -0.006762 0.106932 -0.109045 0.069315 -0.019653 -0.032122 -0.055368 0.045435 -0.055368 0.025782 -0.010672 0.011042 0.027261 -0.069738 0.039518 -0.101860 0.001743 0.018385 -0.093829 0.002034 -0.112426 0.016378 0.048605 0.081150 0.033601 0.040152 0.092561 -0.093407 0.069738 -0.119189 -0.024831 -0.018068 0.024091 -0.084531 -0.030220 -0.030642 -0.026099 0.034658 -0.112426 0.060017 -0.059594 -0.054100 -0.095097 0.078191 -0.004464 0.013314 0.047760 -0.013631 0.066779 -0.075655 0.063398 -0.101437 0.101437 0.002932 0.077346 -0.000779 -0.014476 -0.051564 -0.100592 0.001169 -0.059172 -0.030220 0.085799 0.007449 -0.001902 0.070161 -0.002259 -0.084108 0.045435 -0.034235 -0.029586 0.079882 -0.094252 0.028318 -0.062553 0.101860 -0.085799 0.015638 -0.075233 0.000878 -0.032756 0.091293 -0.054945 -0.016801 0.031488 -0.064244 0.029163 0.020499 0.092139 -0.040152 -0.059594 0.054100 0.019019 -0.070161 -0.070583 -0.060440 -0.031910 -0.029586 0.021872 0.071006 0.050507 0.010725 -0.032756 -0.086222 -0.028318 -0.025148 -0.079036 -0.031488 -0.016378 0.000047 -0.098901 0.019970 0.016906 0.006868 -0.044379 -0.049239 -0.043322 0.120879 0.019019 0.049662 0.075655 -0.037405 -0.022823 0.027473 0.060440 0.010514 -0.073119 -0.027261 0.050719 -0.008876 0.013102 -0.106932 -0.053043 0.032967 -0.101437
3 0.054750 -0.039839 0.016075 0.050323 -0.044266 -0.009028 0.044965 -0.062438 0.041703 0.047528 -0.033549 -0.021783 0.060108 -0.039606 -0.024230 -0.043101 0.046363 0.005650 0.011008 0.000364 -0.073155 -0.071757 0.017007 -0.019104 0.026909 0.011998 -0.064768 -0.024812 0.039140 -0.018988 -0.109034 -0.067564 -0.040771 -0.203157 -0.141651 -0.004660 -0.056614 0.095987 -0.015843 0.059409 0.066632 -0.028190 0.002432 0.036578 0.005591 0.052886 0.061040 -0.006756 -0.009144 0.015726 -0.106238 0.086668 0.067098 -0.031452 -0.082474 0.042402 -0.046829 -0.061972 -0.056148 -0.003757 -0.098317 0.021550 -0.024346 -0.097851 -0.015610 0.026792 -0.008620 0.067564 0.143515 0.071757 -0.038441 -0.056148 0.010076 -0.023880 0.079679 0.061506 0.000390 -0.063836 0.038907 -0.002432 -0.046130 -0.040538 0.047761 0.049158 -0.001347 0.028656 -0.045664 0.084804 0.066632 -0.006815 -0.075019 0.082008 -0.000863 -0.046829 0.018289 0.021085 -0.010484 0.015493 0.045198 0.112295 0.052653 -0.007805 0.007251 -0.070359 0.012639 -0.043101 0.015493 -0.093657 -0.030753 -0.072689 -0.002665 -0.057546 -0.071757 -0.079679 0.003873 0.041004 0.076883 0.040305 0.001711 0.014153 -0.027491 0.020153 0.054051 -0.049857 0.129536 -0.033549 0.060108 0.077815 0.039839 0.045897 0.034947 0.048226 -0.025744 -0.013920 -0.079213 -0.011358 0.006815 0.017357 0.004863 0.089464 0.025162 0.104840 0.072689 0.024696 -0.016425 -0.026560 0.098783 0.051255 -0.031918 -0.024929 0.080610 -0.025162 -0.071757 0.020153 -0.097385 0.085270 0.030753 0.027841 -0.049857 0.058943 -0.020968 -0.014270 0.129536 0.041237 -0.012756 0.094589 0.088066 0.089930 -0.026676 -0.011591 0.006640 -0.068030 -0.003203 -0.068496 -0.061040 -0.011707 0.050789 -0.061040 -0.013163 0.034248 -0.055449 -0.047993 0.008329 0.167744 0.015843 -0.044266 0.097851 0.025395 0.133263 -0.136059 0.010833 -0.119285 0.072689 -0.114625 -0.015260 0.023065 -0.021783 0.073621 -0.029122 -0.131400 -0.130468 0.015144 -0.002403 -0.042169 0.014503 -0.023414 -0.038441 0.018405 -0.031918 -0.028074 0.022366 0.006203 0.024230 -0.027025 -0.069893 0.076417 0.079213 -0.071291 0.006349 -0.075951 -0.041470 -0.014328 0.024696 0.029588 0.026210 -0.005184 -0.164017 0.039839 -0.012814 -0.050323 -0.011416 0.021783 0.005504 0.078747 -0.075019 0.038907 0.019920 -0.118819 -0.013687 -0.035646 -0.088998 0.136059 0.065700 -0.075951 -0.012639 -0.005737 0.034947 -0.026094 0.056847 -0.059642 0.017939 0.058478 -0.089464 -0.018172 0.070825 0.024579 0.033083 -0.110432 0.032151 -0.066166 0.008911 -0.036811 -0.030287 -0.001507 0.041004 0.013687 0.018056 0.001813 -0.046596 0.005737 0.051255 -0.010542 0.039606 -0.079679 0.109034 0.003844 -0.105772 -0.005621 0.037742 0.043101 0.037276 0.061972 -0.008212 0.034714 0.079679 -0.066166 0.021783 0.059642 -0.041237 0.047295 -0.017939 -0.004164 -0.075485 0.058943 -0.029821 0.030753 -0.074087 -0.053585 -0.034714 0.035879
man 0.141162 0.056634 0.015004 -0.035925 0.038883 -0.017857 -0.085796 0.002985 0.062128 0.000842 0.012468 -0.108196 -0.036347 -0.065509 -0.044166 0.017645 -0.042264 0.025675 0.012891 -0.043532 -0.056634 0.000561 0.011306 -0.117494 0.027683 -0.082838 -0.033811 0.112423 0.162294 -0.019653 0.070158 0.059170 -0.027683 -0.008928 -0.041841 0.109887 0.107351 -0.054943 0.031064 0.138626 0.013630 -0.016694 0.091713 -0.003513 0.096362 -0.058325 -0.032966 0.004543 -0.022400 0.016483 -0.057902 0.054098 0.024196 -0.079034 0.035291 -0.036558 -0.033600 -0.018808 0.035079 -0.004728 0.075653 0.132709 -0.018702 -0.006128 0.039306 -0.004015 -0.014898 -0.049872 0.053887 -0.010672 0.036981 0.062128 -0.120030 0.015849 -0.047758 0.056634 -0.007449 -0.034868 -0.003064 -0.012785 0.130174 -0.039094 0.013630 -0.080725 -0.048392 0.044377 -0.112423 -0.009562 0.072694 -0.023034 -0.062974 -0.004543 -0.013155 -0.016694 0.049872 -0.002708 -0.060438 0.034657 0.026415 -0.066355 -0.048181 -0.061283 0.085796 -0.030008 0.126792 -0.069313 0.090445 0.000181 0.007925 -0.087487 0.020604 0.025147 -0.005336 -0.008611 -0.001578 -0.005864 -0.035713 -0.013630 0.003104 0.087064 0.035925 -0.020815 -0.114113 -0.041841 -0.097630 -0.041841 0.028106 -0.010830 0.036770 0.013842 -0.032755 -0.109887 -0.050506 -0.006260 -0.069313 -0.003038 -0.024725 0.012151 -0.039728 0.109041 0.104392 0.028740 0.056211 0.073962 -0.059170 0.081147 -0.043321 -0.018174 -0.051985 0.002272 0.067623 -0.087909 -0.030853 -0.026415 0.007079 0.079034 0.015532 -0.018385 0.072694 -0.065087 -0.073540 0.007925 0.120030 -0.005494 -0.016906 -0.066777 0.079879 -0.034234 0.039094 -0.011728 0.035713 0.029162 -0.069736 -0.084951 -0.065932 -0.020392 0.020604 0.025570 -0.073117 -0.064664 0.056211 0.018702 0.011358 -0.077766 -0.084951 0.027894 0.038672 0.071004 -0.016483 -0.042475 -0.006419 0.081147 0.055366 0.098475 0.007872 -0.034445 -0.049238 -0.030008 -0.067200 -0.035079 -0.040151 -0.049026 -0.065509 -0.034657 -0.022189 -0.066355 0.050506 0.029585 0.014053 -0.147079 -0.035291 -0.036136 0.017328 0.021238 -0.104392 -0.058325 -0.025675 0.052619 -0.147924 0.071426 0.026732 -0.078611 0.087064 -0.033389 0.071004 0.001743 0.131019 -0.043321 -0.059170 -0.025781 0.027049 -0.092136 -0.028317 0.077766 -0.033600 -0.008347 -0.065087 -0.000459 0.014792 0.014475 0.083683 0.008506 -0.086219 -0.046068 0.006604 0.004015 0.006128 -0.010355 0.025464 0.010249 0.054098 0.020604 -0.024091 0.050083 0.063819 0.043955 -0.030853 -0.033389 -0.054521 0.012626 0.041208 -0.053675 -0.047336 -0.055789 0.070581 0.122566 -0.013630 0.053253 -0.100589 -0.040574 -0.056211 0.005864 -0.016800 -0.035713 0.003883 0.070581 0.045645 -0.060015 -0.071426 -0.016694 0.046913 -0.045434 0.027683 0.168211 -0.025887 -0.026521 -0.045223 -0.072694 0.031064 0.060438 0.067200 -0.013525 -0.087487 -0.056211 -0.043532 -0.027683 -0.036136 -0.131019 -0.034657 0.009087
Saturday 0.034920 0.060100 0.048935 -0.092644 0.039671 0.024824 0.032307 -0.072690 -0.001032 0.084093 -0.008730 -0.028506 0.024824 0.026487 -0.038008 -0.026843 -0.034445 0.057725 0.100246 0.052498 0.024586 0.040146 -0.010512 -0.029100 -0.070315 -0.067464 0.043709 -0.007067 0.080767 0.019717 0.011224 -0.045610 -0.026249 -0.116874 -0.001121 0.105947 0.022686 -0.003415 -0.042759 0.012768 -0.019717 -0.065564 0.185289 0.006444 0.028150 0.060575 -0.028031 0.022567 0.023517 0.049648 0.034920 0.114974 -0.021617 0.056537 0.008849 -0.051786 -0.032782 -0.105472 0.029812 -0.028625 -0.106422 -0.000798 -0.072215 -0.046797 0.013125 0.049410 0.038958 0.028862 0.085993 0.078866 0.058912 0.005078 0.020429 0.005701 0.095020 0.012768 -0.019598 -0.075066 0.087893 -0.020429 0.018054 -0.094545 0.095020 0.000097 0.030169 -0.053211 -0.072215 -0.095495 -0.031594 0.038721 -0.046560 -0.029456 0.031119 -0.060813 -0.050598 -0.072690 -0.000018 0.051073 -0.074115 -0.058675 0.094545 -0.002079 0.029931 -0.019717 -0.041809 -0.036583 0.092169 -0.092644 0.047035 -0.120200 0.084568 0.028150 0.066514 -0.104522 0.002569 0.014966 0.057487 0.047747 0.024349 0.075541 -0.071740 -0.031119 0.044184 -0.015203 -0.005493 -0.001485 -0.014431 -0.003563 -0.003756 -0.008374 -0.012768 -0.048698 0.012293 -0.032069 -0.124476 -0.070790 0.010096 0.028031 -0.073165 0.132078 -0.050361 0.066514 0.129227 -0.089794 -0.030050 0.072690 0.026843 -0.046085 -0.053924 -0.061763 -0.015678 0.030881 0.008077 -0.063188 0.076016 -0.128277 0.104997 -0.085993 -0.002479 0.055111 -0.005671 -0.071265 0.038245 0.056537 0.102621 -0.022211 0.034207 -0.035157 0.012115 -0.038721 0.020310 -0.004721 -0.033257 -0.011521 -0.124476 -0.109273 0.038958 -0.032782 -0.060813 -0.005493 -0.089794 -0.026249 0.014491 0.019598 -0.043709 0.020786 0.076966 0.004662 0.096920 -0.011046 0.079342 0.072690 -0.014550 0.060338 -0.119250 -0.037533 0.025537 0.036820 -0.039433 -0.028031 -0.025180 -0.054874 -0.042046 0.006058 0.115449 -0.011343 0.055111 0.130177 0.025061 -0.032069 -0.035632 -0.078866 0.038721 -0.038483 -0.083617 -0.051073 0.004781 0.009977 -0.116399 -0.003771 0.019123 0.079817 0.073640 -0.038245 -0.025655 -0.115924 -0.036583 0.102621 -0.020310 -0.001989 0.087893 -0.005434 -0.053924 0.112123 0.064613 -0.041334 -0.009264 -0.041334 -0.006711 -0.028862 0.028268 0.107372 -0.033970 -0.030644 -0.075541 -0.022567 0.044422 0.024586 0.035395 -0.044184 -0.052023 0.028743 -0.021379 -0.033494 0.081242 0.038245 0.056299 0.030169 -0.003920 -0.038008 0.009146 -0.019479 0.111173 0.073640 0.054161 0.021379 0.044659 0.089319 -0.051311 0.013659 -0.063188 0.040146 -0.034920 0.039671 0.087893 0.000191 0.002168 -0.017935 -0.045372 0.003801 0.005671 0.025061 0.002153 0.076966 0.059862 -0.162484 0.009146 0.053686 -0.006058 0.004157 0.066039 -0.033019 -0.098821 -0.015559 0.042046 -0.051786 -0.074591 -0.073165 0.061763 -0.072215
& -0.104699 0.024354 -0.091043 0.048936 -0.063730 -0.026289 -0.091953 -0.088767 -0.051212 -0.048936 -0.014681 0.069193 -0.005776 0.017412 -0.218503 0.040286 0.044839 0.033231 0.000453 -0.009673 0.016502 -0.080118 0.030955 0.049618 -0.035734 0.050074 -0.054626 0.020029 -0.011836 -0.014055 -0.086036 -0.005093 -0.140206 -0.086491 0.039604 0.049391 0.008251 0.062364 -0.009275 0.107431 0.041652 0.082849 -0.091043 -0.030727 -0.060088 -0.019347 -0.070558 -0.098782 0.047570 0.050074 -0.018550 0.158415 0.053488 0.063275 0.008649 0.080118 0.032548 -0.050529 0.079663 -0.062364 -0.065096 -0.108341 -0.061909 -0.021623 0.002390 -0.052122 -0.008763 -0.022647 -0.038921 -0.105610 -0.018436 -0.105155 0.027313 0.015591 0.037328 -0.014681 0.042563 -0.041197 -0.004467 -0.033686 -0.057585 -0.058723 -0.017412 -0.001643 0.010356 -0.042107 -0.104244 0.065551 0.039604 0.028679 0.046432 -0.091043 -0.042335 -0.035962 0.006430 0.039831 -0.001145 0.037783 0.034141 -0.025492 0.047798 0.016615 -0.079663 -0.023557 -0.021167 -0.008820 -0.079663 0.065096 -0.056902 -0.031865 -0.042563 0.018550 -0.072379 -0.043245 0.007340 -0.059633 0.064185 0.069193 0.114259 0.078752 -0.009787 0.020257 0.023444 -0.036645 0.087856 -0.109251 -0.017753 0.049618 0.064640 -0.033231 0.050756 -0.005292 -0.069193 -0.077842 0.015022 0.055764 -0.006714 0.042563 0.025947 0.110617 0.067827 -0.020712 0.025947 -0.015022 -0.059178 -0.016046 0.078752 0.087401 0.032775 0.031410 -0.011096 -0.034824 0.088312 -0.064640 -0.039604 0.025378 0.034141 -0.021054 -0.023102 0.093774 0.042563 -0.022078 0.062364 0.066006 0.059178 -0.030272 0.007027 -0.007682 -0.049618 -0.020143 -0.060544 0.018095 -0.016046 -0.061909 -0.059178 0.026402 0.000343 0.041652 -0.012234 0.063730 -0.073290 0.038010 0.070558 0.011722 -0.122908 -0.030499 0.064185 -0.121087 0.007682 0.053260 0.036190 -0.067827 -0.075110 0.046659 0.045294 0.026744 -0.022192 -0.036417 0.073290 -0.101513 -0.015022 0.090588 -0.129281 0.073745 -0.029817 0.028337 0.003599 0.068282 0.020485 0.031182 0.055991 -0.067827 0.012291 0.038466 0.039148 0.063275 0.038693 0.002404 0.008478 -0.004922 -0.061909 0.043245 -0.052122 0.022078 -0.018095 0.026402 -0.055536 -0.045521 -0.040059 -0.002888 -0.090588 0.076476 -0.133833 0.030727 0.051894 -0.000325 -0.038921 -0.026289 -0.048025 0.031410 0.070558 -0.077842 0.058267 -0.054626 0.079207 0.019688 0.050529 0.063275 -0.073290 -0.048253 -0.042790 0.097871 0.015819 0.021054 0.002632 0.016729 -0.096050 -0.059178 -0.006601 -0.086491 -0.010242 -0.015477 0.055536 -0.044383 -0.014567 0.055991 -0.086491 0.001102 0.129281 0.079663 0.043701 -0.023216 -0.078297 -0.033003 -0.004239 0.009560 -0.074655 0.053715 -0.053032 0.006914 -0.153862 -0.040286 -0.105610 -0.008990 -0.038010 0.047342 -0.015933 -0.000590 0.006714 0.050301 -0.017071 0.017753 -0.029020 0.083759 -0.051212 -0.135654 -0.053260 0.040286 -0.035962 0.080573
local -0.064092 -0.020817 -0.029649 0.007980 -0.048196 0.003580 -0.053999 0.031668 0.004731 0.008201 0.066616 -0.042644 -0.087812 0.095382 -0.135250 0.045420 -0.096391 0.149381 0.035579 0.030406 -0.011860 0.011292 -0.078728 -0.003091 -0.017411 0.051476 -0.024602 0.029901 0.012175 -0.084279 0.101438 -0.024602 -0.032299 -0.077214 0.029649 -0.030154 -0.014004 -0.031289 0.022331 0.083774 0.019177 -0.042644 0.024350 0.042644 -0.031920 0.027883 -0.069644 0.032299 -0.007980 0.037598 -0.017285 0.040626 -0.025107 -0.003801 -0.037345 0.020691 -0.063335 0.035074 0.015203 0.036841 -0.052233 -0.024729 -0.084784 -0.002902 0.022331 -0.044158 -0.003186 -0.035327 0.096896 -0.002744 -0.059046 -0.003564 0.029901 0.024729 0.072167 0.047439 -0.002776 0.079232 0.080746 -0.096896 0.024476 -0.022079 0.038859 -0.004637 -0.048196 -0.050719 -0.068130 -0.017285 -0.005394 0.061317 0.068130 -0.071158 -0.076204 -0.077718 -0.019934 0.060055 -0.027630 0.026116 -0.054504 -0.040878 -0.086802 0.104970 0.033308 0.032299 -0.088316 0.052990 0.004763 -0.078728 0.112036 -0.086298 -0.026495 -0.038355 -0.061064 -0.053999 -0.044411 -0.052485 0.020565 -0.025990 -0.005646 -0.002098 -0.052485 0.041130 -0.097905 0.028640 0.066111 0.139288 -0.004447 0.007097 0.050214 0.007917 -0.020060 -0.045672 -0.004794 -0.018042 -0.082260 0.018925 -0.019430 -0.116073 0.107998 -0.034065 0.007507 0.014888 -0.035831 -0.044663 0.052233 -0.062074 -0.038102 -0.068130 -0.017789 -0.013121 0.093363 0.021196 -0.036841 0.039364 0.083270 -0.043401 0.086298 -0.090840 0.037093 -0.067625 -0.107998 0.003517 -0.088316 0.036336 0.072672 0.002429 0.044411 -0.123643 0.130204 -0.054756 -0.084784 -0.058036 0.072672 -0.107494 -0.017411 -0.102447 0.064092 -0.069644 -0.022962 0.018925 -0.040373 -0.079737 0.009399 -0.073176 0.032803 -0.046429 -0.013563 -0.019430 0.056270 0.062831 -0.050214 -0.020439 -0.046177 0.009336 -0.051223 -0.094372 -0.050214 -0.014825 -0.040373 0.028387 -0.040878 0.124652 0.019556 -0.099924 -0.018925 -0.056522 -0.021574 -0.070653 0.035074 0.071662 0.037850 -0.122129 0.030280 0.096896 0.039112 -0.032551 0.101438 -0.024098 -0.072167 0.036336 0.031668 -0.051476 -0.084279 -0.058289 -0.042897 -0.035327 -0.058289 0.050467 0.076204 -0.001624 0.055261 -0.095886 0.024350 0.050214 -0.059803 -0.022458 0.133232 -0.007538 -0.024855 0.039364 0.029144 -0.104466 0.057532 0.013437 -0.054504 -0.016023 0.129194 -0.011292 0.035327 -0.061569 0.002255 0.133232 0.072167 -0.068634 0.073681 -0.029271 0.040373 0.042140 -0.052485 -0.007728 -0.080242 0.014004 -0.062326 0.020060 0.059803 0.077214 -0.053999 0.049457 0.024602 -0.008075 0.026873 -0.039112 -0.096391 0.007223 0.020439 -0.077214 0.021070 -0.034065 0.043906 0.050214 -0.141306 -0.060307 0.098410 0.055513 0.037598 -0.011040 -0.123643 0.057784 0.063335 0.069644 -0.024981 0.040373 0.003233 -0.000915 0.016275 0.016149 -0.009715 -0.000384 0.050971 -0.079737
5 0.055633 -0.024621 0.032670 0.046874 -0.012725 0.003581 0.080964 -0.026159 0.082384 0.034564 -0.040009 -0.005504 0.039298 -0.060605 -0.041666 -0.028645 0.033380 0.018702 -0.018229 0.046400 -0.089960 -0.107478 0.007753 -0.002486 0.004705 0.022135 -0.047347 -0.000462 0.060131 -0.004291 -0.129732 -0.089013 -0.039062 -0.194124 -0.107478 -0.005356 -0.027106 0.059421 0.006037 0.045927 0.026633 -0.043086 0.013967 0.022727 0.031959 0.035747 0.013612 -0.001258 -0.025923 0.018702 -0.108425 0.057527 0.025449 -0.054213 -0.071494 0.030539 -0.061078 -0.026870 -0.091380 -0.006629 -0.063445 0.010949 -0.037641 -0.095642 0.035747 0.042376 -0.001531 0.081437 0.123103 0.091854 0.019176 -0.072915 0.042613 0.002693 0.064866 0.047111 0.009943 -0.060605 0.005060 0.004528 -0.028527 -0.074335 0.045690 0.067707 -0.025923 -0.006155 -0.031249 0.053029 0.042139 -0.012074 -0.077176 0.077176 -0.002471 -0.027106 0.022017 0.037404 -0.031959 0.029119 0.030539 0.067707 0.013967 -0.000947 -0.037878 -0.038351 -0.010949 -0.056107 -0.000640 -0.114581 -0.029829 -0.077176 0.010416 -0.067707 -0.075756 -0.084278 -0.004942 0.029710 0.099429 0.053503 0.000359 0.030776 -0.017992 0.024976 0.050188 -0.040245 0.094221 0.028053 0.072915 0.080017 0.089013 0.050188 0.035984 0.035274 0.020004 -0.048058 -0.081437 -0.027580 -0.015861 0.014618 0.000977 0.138254 -0.010890 0.054686 0.022963 0.030184 -0.012251 -0.050662 0.113634 0.019649 0.015625 -0.038825 0.132573 -0.023437 -0.078123 0.018229 -0.094695 0.068654 0.011659 0.055396 -0.049005 0.058474 -0.013612 -0.007931 0.132573 0.062498 -0.008641 0.086646 0.064392 0.065339 -0.019531 -0.022017 -0.051609 -0.045927 -0.015033 -0.043086 -0.114107 -0.056107 0.051609 -0.031249 0.004172 0.031723 -0.032433 -0.066760 -0.006185 0.151512 -0.004054 -0.064392 0.077176 0.039062 0.158140 -0.129732 0.034327 -0.078123 0.052556 -0.111740 -0.032196 0.032670 -0.017637 0.073388 -0.070548 -0.133520 -0.140148 -0.015151 0.022017 -0.030184 0.008345 -0.023200 -0.010239 0.051845 -0.012014 0.015743 0.034800 -0.005060 0.023555 -0.055396 -0.070548 0.121209 0.086172 -0.063919 0.002219 -0.067707 -0.037641 -0.002560 0.028408 0.014086 0.026870 -0.039535 -0.123103 0.049005 -0.007694 -0.075756 -0.024621 -0.000977 -0.003122 0.103691 -0.068654 0.068180 -0.007694 -0.101323 -0.026870 -0.062972 -0.056343 0.141095 0.066760 -0.079070 0.002796 -0.059184 0.036931 -0.031249 0.075756 -0.032670 0.063445 0.041666 -0.058474 0.005948 0.103691 0.035274 0.053739 -0.073862 0.007132 -0.032670 0.053976 -0.040482 -0.034564 -0.016927 0.042139 0.026633 0.004853 0.015151 -0.060131 -0.019886 0.043323 0.009529 0.032906 -0.059421 0.109846 0.003226 -0.099429 0.045690 0.045217 0.073388 0.048768 0.038825 -0.044507 0.023437 0.071021 -0.096115 0.000947 0.086646 -0.020478 0.046164 0.031486 -0.018821 -0.063445 0.035037 -0.020714 0.054923 -0.062025 -0.041902 -0.027461 0.039535
news -0.052617 0.016582 -0.049653 -0.063733 -0.022974 -0.026864 0.003242 -0.037795 0.074479 0.055581 -0.087448 -0.036498 -0.053358 0.097082 -0.063363 0.054099 -0.064474 0.026123 0.090783 -0.108199 0.064845 0.064845 0.021306 -0.024456 0.052617 0.122279 0.019268 0.103011 -0.002142 0.009819 -0.021399 0.011857 0.065216 -0.069292 0.019083 -0.004030 -0.009866 0.075961 -0.028717 0.047429 0.004933 -0.064845 -0.036684 0.083372 0.024641 0.094118 0.042057 0.010144 -0.041686 0.066698 0.124502 -0.045021 0.012228 0.114868 0.034831 -0.019824 -0.104493 -0.017786 0.079667 -0.077443 0.040204 -0.031867 -0.037054 -0.060769 -0.001714 0.035016 0.021769 -0.016767 0.024456 0.064474 -0.024271 0.008198 0.006346 0.007272 -0.054840 0.087078 -0.055952 0.022233 0.002316 -0.032423 0.132654 0.054470 0.027050 -0.020287 0.007318 -0.094859 -0.083372 -0.091895 0.006114 -0.006901 0.117833 0.030940 0.065216 0.021491 -0.017971 -0.028161 0.000926 0.041871 0.119315 -0.019639 -0.014081 0.001633 0.032237 -0.054840 -0.024085 0.023900 -0.029829 -0.048171 0.057064 -0.076702 0.021399 0.052247 0.064474 0.006762 -0.028902 0.018064 0.060769 0.076702 0.125243 0.004261 -0.025753 -0.054840 -0.088930 0.024826 0.026309 0.002582 0.018157 0.001633 0.073738 -0.059287 -0.130431 -0.082631 0.034460 0.022603 0.029088 -0.006855 -0.003474 0.012506 -0.011487 -0.018342 0.137101 -0.032423 0.003404 -0.060398 0.012691 -0.119315 0.050764 -0.041130 -0.040574 -0.062622 0.050764 0.047800 -0.126726 0.004771 -0.030755 -0.019546 -0.002698 -0.038536 -0.070774 -0.027976 -0.039833 0.077073 -0.066698 0.102270 0.003520 -0.019454 -0.015748 0.003844 0.120056 -0.055211 0.094859 -0.051135 0.040574 -0.097823 -0.003798 -0.039278 0.104493 -0.059657 0.023900 -0.090412 0.034831 -0.103011 0.070033 -0.091154 0.097082 0.031496 -0.069662 0.024826 0.062251 -0.001552 0.034275 0.000938 -0.054470 -0.077814 -0.038907 0.087448 0.010422 0.074850 0.026123 0.029643 0.020658 0.045021 0.014173 -0.064474 0.001413 -0.032978 0.057434 0.091154 -0.038536 0.010190 0.001818 0.038722 0.029643 0.062251 -0.015100 0.104493 -0.013432 0.000337 -0.074109 0.044095 0.070774 -0.068180 -0.096341 -0.048912 0.002478 -0.055211 0.024271 0.042242 -0.003011 -0.032608 0.072997 0.070033 -0.024456 -0.020472 0.009356 -0.052988 0.040945 -0.007040 0.149699 0.125985 0.028347 0.002988 -0.049282 -0.037240 0.001031 0.077073 0.064104 0.041501 0.040574 -0.004678 -0.021306 0.017138 -0.064474 -0.025012 0.031126 -0.007735 -0.026123 0.015563 0.023715 -0.006021 0.045947 0.060398 -0.011070 0.075961 -0.013247 0.194164 0.075591 -0.004840 0.003011 0.002710 0.053358 0.060398 0.093006 -0.174155 0.098564 0.019268 0.098564 -0.033164 0.099305 -0.018342 -0.098564 -0.021028 -0.033164 -0.019454 -0.039833 0.005489 -0.032237 0.081149 -0.003566 0.061140 0.054840 -0.026123 0.000281 -0.027420 0.075220 -0.017508 -0.033164 0.031311 0.087078 0.022510
